総合政策学【学期前半】【１４】,0.031538,-0.015307,0.053721,-0.013048,-0.006166,0.000577,-0.013134,0.021204,0.029393,0.000349,-0.062753,0.004170,0.010759,-0.046888,-0.021332,-0.033547,0.002237,-0.020384,-0.008159,0.004164,-0.010197,0.054086,-0.003463,0.009409,0.012721,-0.021363,-0.008767,0.027757,0.009022,-0.035126,0.015933,0.040262,-0.028816,-0.014508,-0.014663,-0.027162,-0.033225,-0.014961,0.045786,-0.006493,0.001085,-0.039468,0.034741,0.007861,0.001690,-0.019341,-0.022830,-0.043092,0.020876,0.018702,0.027311,0.057466,-0.025644,0.050673,-0.056518,0.011011,-0.012103,0.101434,-0.067141,0.014649,-0.003431,0.013587,0.017565,0.021669,-0.050378,0.068616,0.040319,0.016100,-0.041619,-0.061839,0.007527,-0.021450,-0.005365,0.012410,-0.038829,0.009847,0.017772,-0.044500,0.027788,0.003058,-0.007575,0.038578,-0.038454,-0.022215,-0.037194,0.039508,-0.021606,0.013426,-0.010094,-0.055373,0.020710,0.025616,0.016184,-0.037223,0.003201,-0.010645,-0.048349,0.038054,0.045044,0.011012,-0.042100,0.020650,0.021746,-0.053466,0.015219,0.012548,0.042624,0.003083,-0.051637,-0.001461,-0.026895,-0.004945,0.053034,0.008153,-0.047725,-0.004773,0.003396,0.019691,-0.043159,-0.055584,0.011978,-0.013499,-0.007751,-0.056165,-0.033607,-0.008676,0.001381,-0.005588,0.030627,0.028596,0.038994,0.017354,0.020183,-0.001841,-0.003401,-0.008487,-0.065639,-0.014461,-0.023970,0.028665,0.005481,-0.013764,0.023552,0.004512,-0.000962,-0.004471,-0.004367,0.020977,-0.007403,0.010692,0.038111,0.023796,0.012464,0.088119,-0.032765,-0.026901,0.023681,-0.038082,-0.045727,-0.061137,0.018030,-0.023296,-0.035629,-0.020617,-0.010012,-0.012230,-0.047170,-0.052857,0.043152,0.014612,0.000121,-0.025739,0.020423,0.033375,0.016425,-0.010736,-0.044254,0.011453,0.014440,0.009221,0.041362,0.029193,-0.010063,-0.035336,0.028030,-0.048625,-0.022925,-0.033307,-0.005600,-0.014598,0.014728,0.031157,0.032139,0.020581,-0.040621,0.026423,0.074084,0.002655,-0.116787,-0.001966
環境情報学【学期前半】【１４】,0.042635,-0.024001,0.045295,-0.037569,-0.004404,-0.019923,-0.050822,0.004076,0.061508,0.003705,-0.117661,-0.007986,-0.012997,-0.073334,-0.020567,-0.098320,-0.037403,-0.020899,-0.019376,0.008329,-0.041558,0.092347,-0.043550,0.019968,0.005244,-0.015620,0.002250,0.057293,-0.011606,-0.036362,0.014094,0.068354,-0.065129,-0.008155,-0.026432,-0.051539,-0.034508,-0.019499,0.056712,-0.039465,-0.038402,-0.044377,0.074287,0.018231,-0.034806,-0.052713,-0.024380,-0.081591,0.067886,0.025048,0.004531,0.064425,0.007608,0.076424,-0.123592,0.026105,-0.034606,0.162893,-0.117354,0.044750,-0.026228,0.003471,0.008729,0.024535,-0.112480,0.102501,0.049029,0.025979,-0.049472,-0.111529,0.041245,-0.019018,-0.007809,-0.008730,-0.094197,0.014060,0.004138,-0.040664,0.077876,0.027130,-0.012911,0.047704,-0.056512,-0.056407,-0.068193,0.001914,-0.028443,-0.022128,-0.015289,-0.095558,0.017798,0.052717,0.036908,-0.070362,0.023147,0.042271,-0.021856,0.011788,0.046110,0.009901,-0.085885,0.046526,0.037929,-0.058063,0.017706,0.012679,0.048545,0.036099,-0.073188,0.006361,-0.077914,-0.018890,0.097708,0.023448,-0.055798,0.011380,0.032049,0.055970,-0.089245,-0.104492,0.024807,-0.029213,-0.022873,-0.054624,-0.091219,-0.048025,0.023742,-0.016055,0.079011,0.040136,0.018379,0.017687,-0.005510,-0.002418,-0.030110,0.009119,-0.114666,-0.011087,-0.035685,0.054281,-0.003264,-0.018229,0.063699,0.031572,-0.016564,0.003030,-0.031584,0.045579,0.014944,-0.002593,0.069287,0.056555,0.024125,0.140012,-0.089608,-0.053174,0.039434,-0.031438,-0.088327,-0.116982,-0.027125,-0.020072,-0.063534,-0.046678,-0.007363,0.006790,-0.095518,-0.067228,0.099238,0.002691,0.012234,-0.058629,-0.002591,0.056411,-0.012598,0.006740,-0.098518,0.017281,0.041554,0.030340,0.082428,0.072244,0.013380,-0.107689,0.051350,-0.089269,-0.034728,-0.054545,-0.005798,-0.046216,0.042648,0.024619,0.036439,0.062227,-0.070231,0.070208,0.130321,0.007448,-0.188187,-0.009032
慶應義塾入門【１４】,0.020728,-0.000455,0.109880,-0.140828,0.046934,0.119707,0.044742,0.035097,0.188998,-0.055910,-0.292790,-0.123542,0.065036,-0.313387,-0.069961,-0.075409,-0.011857,0.100029,-0.003891,-0.066343,-0.079752,0.238340,-0.212897,0.026415,0.072602,-0.086142,0.073711,0.020975,0.177333,-0.212663,-0.069471,0.038552,-0.056227,-0.000616,-0.089150,-0.021756,-0.055754,-0.031181,0.376718,0.016732,0.032048,-0.258381,0.205458,0.214314,-0.050718,0.144158,-0.084793,-0.357566,-0.044698,0.145022,0.075929,0.261465,-0.003604,0.134041,-0.099788,0.005703,-0.052824,0.408667,-0.255550,0.167354,-0.017587,0.012483,0.123477,0.110730,-0.298721,0.262978,0.310100,0.034899,-0.218732,-0.227279,0.066326,0.025570,0.085551,-0.006444,-0.212697,0.126489,0.100729,-0.153289,0.105206,-0.050317,0.032489,0.183573,-0.146688,0.199844,-0.149446,0.297410,0.104132,0.111354,-0.067366,-0.145319,0.044455,0.116740,0.252767,-0.015067,0.024515,-0.163122,-0.281079,0.093691,0.295572,0.018185,-0.014661,0.034549,-0.071684,0.069543,-0.021524,0.181424,0.085258,0.063370,-0.317995,0.072753,0.021602,-0.112849,0.225850,0.284770,-0.202680,-0.023926,0.087590,0.165826,-0.111987,-0.038505,0.144502,-0.109862,0.089610,-0.308393,0.027018,-0.031751,0.115292,0.080675,0.093670,0.115894,0.252752,-0.054533,0.167165,-0.085000,-0.035032,-0.090971,-0.250392,-0.084828,0.035731,-0.033427,0.055125,0.040072,-0.005533,0.105737,0.041993,-0.154913,-0.024134,0.026295,0.046498,0.012450,0.152990,-0.083878,0.048949,0.385233,0.192852,-0.107245,0.152630,-0.044098,-0.054057,-0.317501,0.155184,0.138800,-0.083981,0.181836,-0.126372,-0.013008,-0.199252,-0.227298,0.106245,0.047330,-0.081457,0.138877,-0.035588,0.123996,-0.081187,-0.024189,-0.044075,0.128039,-0.132304,-0.040816,0.137542,0.071850,-0.125339,-0.155528,0.028654,-0.104638,0.076730,-0.232793,0.020212,0.017150,0.152262,0.299441,0.130068,-0.022763,-0.198364,0.135991,0.288780,0.149546,-0.445153,-0.104795
ＳＦＣ実践英語入門(Gateway A)【１４】,-0.037910,-0.029591,0.020475,-0.173402,-0.035610,-0.009468,-0.046138,0.011571,0.050367,0.005161,-0.208577,-0.105479,0.022702,-0.125011,-0.001009,-0.095311,0.006339,0.019647,0.005805,-0.004247,-0.119412,0.163591,-0.155882,0.030764,0.019837,-0.004960,0.075657,0.120907,0.004633,-0.066008,-0.048667,-0.004909,-0.071167,0.089164,-0.093571,-0.113135,-0.064541,-0.046004,0.082337,-0.000986,-0.006929,-0.099258,0.167575,0.025283,-0.130973,-0.046601,-0.059356,-0.147745,0.073303,0.081785,-0.019630,0.132350,0.017625,0.127282,-0.173674,0.047592,-0.022283,0.302261,-0.194738,0.140102,-0.015780,-0.020376,0.044046,0.053582,-0.235386,0.187985,0.155574,0.015002,-0.158389,-0.154785,0.047748,0.013997,0.001373,-0.028607,-0.158089,-0.017850,0.034068,-0.048248,0.129196,0.007958,0.007661,0.077771,-0.076218,0.019460,-0.104931,0.082843,0.022267,0.017288,0.021564,-0.133691,-0.062475,0.111576,0.142281,-0.100597,0.018128,0.049627,-0.049976,-0.033403,0.149249,-0.000453,-0.110801,0.050492,0.037825,0.079996,-0.033738,0.158225,0.012983,0.086035,-0.121315,-0.000481,-0.054469,-0.092673,0.097479,0.164178,-0.009534,0.024271,0.066938,0.121597,-0.126298,-0.117878,0.023634,-0.045917,0.047904,-0.105998,-0.082722,-0.138403,0.107997,-0.036716,0.097922,0.075268,0.079963,-0.034680,-0.098215,-0.061860,-0.059790,-0.009588,-0.136495,-0.096567,0.035889,0.042526,-0.073898,0.009260,0.154532,0.081992,-0.014634,-0.026383,-0.082097,0.065137,0.093938,0.027921,0.123952,0.007281,0.041990,0.195092,-0.073206,-0.018372,0.077329,0.021620,-0.092266,-0.218269,-0.044804,0.076304,-0.081784,0.053864,-0.095230,0.064482,-0.138800,-0.115208,0.109490,-0.028293,0.061435,0.048672,-0.072035,0.084441,-0.158611,0.079701,-0.078676,0.063625,0.080366,0.017688,0.084211,0.083377,0.030831,-0.198270,0.058655,-0.144996,0.019112,-0.114403,-0.034238,-0.101120,0.129741,0.041846,0.088849,-0.003332,-0.119404,0.057741,0.154558,0.032850,-0.301057,-0.126303
ドイツ語ベーシック１A【１４】,0.103652,-0.019847,0.221482,0.125330,-0.026693,0.053545,0.036068,0.074170,0.101014,0.004435,-0.128941,0.052451,0.092548,-0.063562,-0.117129,-0.055242,0.046818,-0.108657,0.029058,0.045703,0.051986,0.125285,0.098723,0.012840,0.036403,-0.040821,-0.043686,0.014782,0.145235,-0.208419,0.158135,0.020501,0.043148,-0.053468,0.022074,0.033256,-0.122849,0.001179,0.214934,-0.013311,0.022978,-0.186207,0.005249,-0.016845,0.148975,0.025817,-0.072915,-0.099081,-0.009288,0.045418,0.117873,0.261550,-0.178872,0.056155,-0.051062,-0.012712,-0.009645,0.159754,-0.130568,0.031939,-0.047513,0.053434,0.112348,0.039974,-0.054805,0.161008,0.117201,0.050481,-0.104877,-0.145156,0.037972,-0.001308,0.042431,0.032449,-0.123191,0.020517,0.065805,-0.195312,-0.051451,-0.080597,0.016710,0.153549,-0.060224,-0.024762,-0.090893,0.260344,-0.091206,0.132723,-0.041023,-0.071997,0.139497,-0.020743,-0.012317,-0.086446,-0.108676,-0.152333,-0.262879,0.254581,0.174169,0.051804,-0.030546,0.028469,0.029731,-0.169900,0.062372,0.029954,0.089518,-0.136784,-0.176106,-0.016174,0.070896,0.025153,0.224267,0.046030,-0.216911,-0.081901,-0.041465,0.029112,-0.104979,-0.003017,0.150590,0.007203,0.008401,-0.242129,-0.000653,0.115216,-0.057932,0.067410,0.013714,0.085770,0.199100,0.013103,0.222663,0.024495,0.080443,-0.039579,-0.203850,-0.035765,-0.097529,0.037428,0.187789,-0.004658,-0.093204,0.026676,0.018316,-0.080422,0.039340,-0.015680,-0.075321,0.066615,0.134976,0.030796,0.091512,0.322456,0.058726,-0.138973,0.143616,-0.149200,-0.075216,-0.053507,0.170276,-0.105389,-0.037992,-0.087890,0.047022,-0.061466,-0.027657,-0.205809,0.012524,0.139659,-0.093661,-0.088988,0.105789,0.064169,0.196934,-0.125984,-0.056780,0.028368,-0.090886,-0.007843,0.044642,0.065876,-0.123545,-0.013354,0.024929,-0.066080,-0.033426,-0.129786,-0.035452,0.053489,-0.100363,0.179944,0.131590,0.041749,-0.013760,-0.061259,0.037036,0.048393,-0.008901,0.039156
ドイツ語ベーシック２A【１４】,0.095948,-0.011973,0.192031,0.078114,-0.008817,0.044783,0.021632,0.054635,0.076146,-0.018108,-0.085709,0.059435,0.055903,-0.054341,-0.092046,-0.062118,0.017627,-0.071964,0.026361,0.037752,0.052858,0.093550,0.060450,0.011589,0.040076,-0.024109,-0.040144,0.016068,0.095226,-0.137850,0.124818,0.028229,0.012530,-0.052682,0.005405,0.031161,-0.080784,0.002902,0.163246,-0.004696,0.002658,-0.140661,-0.002980,-0.004922,0.107163,0.028793,-0.079627,-0.088714,-0.019981,0.025503,0.078443,0.175622,-0.128259,0.041734,-0.035020,-0.003849,-0.006212,0.134134,-0.104609,0.008642,-0.047939,0.039247,0.080792,0.063556,-0.056134,0.135078,0.090250,0.026106,-0.071005,-0.110215,0.026852,-0.005764,0.030562,0.027576,-0.106748,0.021352,0.033224,-0.143919,-0.036819,-0.044003,0.027990,0.118875,-0.056937,-0.008531,-0.059833,0.172612,-0.085110,0.090343,-0.036058,-0.065362,0.099501,-0.012772,-0.010155,-0.076069,-0.067489,-0.103988,-0.195026,0.187983,0.132838,0.034673,-0.036619,0.013477,0.015658,-0.128086,0.065468,0.013530,0.104108,-0.084039,-0.140157,-0.035506,0.049456,0.020545,0.172017,0.034691,-0.166822,-0.057353,-0.036179,0.038504,-0.080910,0.003370,0.112493,0.001963,-0.010541,-0.178632,-0.018150,0.093449,-0.039858,0.062697,0.006140,0.068653,0.135391,0.012843,0.179223,0.019950,0.072856,-0.020902,-0.160795,-0.024997,-0.074869,0.035235,0.144593,-0.011034,-0.067376,0.028174,0.018871,-0.043357,0.029574,0.000914,-0.066532,0.051633,0.099077,0.048868,0.068334,0.242047,0.045674,-0.116023,0.104793,-0.130608,-0.051400,-0.063908,0.107740,-0.091385,-0.030399,-0.059838,0.038238,-0.055418,-0.029065,-0.153378,0.025384,0.096009,-0.080110,-0.068481,0.085041,0.040241,0.146009,-0.083974,-0.033358,0.020678,-0.079852,0.006973,0.051815,0.058018,-0.087074,-0.024367,0.014973,-0.049006,-0.025173,-0.095421,-0.008284,0.033935,-0.066284,0.140058,0.070179,0.041480,-0.042926,-0.011439,0.092870,0.067562,-0.080397,0.047017
フランス語ベーシック１A【１４】,-0.149275,0.027386,0.143437,-0.095026,-0.288162,0.074827,0.072210,0.114640,0.121829,0.229555,-0.344664,-0.080540,0.193921,-0.282486,-0.122114,-0.078640,-0.051405,-0.118423,-0.056801,0.116060,0.073363,0.147187,0.052867,0.116183,-0.004818,-0.124400,0.116846,0.286634,0.203134,-0.161573,0.020232,0.015810,-0.025402,-0.013186,-0.172927,-0.150608,-0.283031,0.068936,0.121568,0.028802,0.080863,-0.115118,0.205829,0.123845,0.098653,-0.128582,-0.032834,-0.041512,0.043991,0.054039,0.013337,0.451632,-0.083679,0.125851,-0.329597,0.108549,0.019688,0.382228,-0.359805,0.219182,0.172550,0.040203,0.211661,0.035162,-0.278902,0.359846,0.298707,0.082407,-0.222064,-0.258386,0.025893,-0.186942,0.123549,0.033203,-0.121932,-0.109948,0.078970,-0.290643,0.005692,-0.087290,-0.175533,0.104076,-0.147607,-0.037668,-0.041816,0.440550,0.035170,0.146007,0.000678,-0.157195,0.073377,0.157886,0.202499,0.031097,-0.180954,-0.165440,-0.282039,0.054997,0.233037,0.021202,-0.102840,-0.146521,0.122899,-0.093778,-0.045852,0.236236,0.006392,-0.024615,-0.087933,-0.198149,0.075237,-0.005752,0.155387,0.014159,-0.106072,0.033648,0.098744,-0.014403,-0.135122,-0.068230,-0.028069,-0.071878,0.123896,-0.279859,-0.093887,-0.128107,0.084243,-0.105301,0.082896,0.047272,0.266274,-0.013657,-0.041835,-0.145885,-0.033222,-0.082964,-0.246171,-0.092851,-0.086523,0.073137,-0.109437,0.002572,0.154659,-0.103658,-0.075820,-0.163742,0.073754,-0.051388,0.163264,0.008680,0.217806,-0.155258,0.040162,0.222925,-0.165844,-0.154670,0.184835,-0.063661,-0.070685,-0.201933,0.067779,-0.112597,0.003808,0.035690,0.017015,-0.004840,0.053294,-0.243566,0.220746,0.135662,0.141403,0.016713,0.184855,0.025518,-0.045234,-0.161237,-0.105157,-0.001124,0.256929,0.002456,-0.072500,0.056139,0.076350,-0.108266,0.026227,-0.148857,0.083927,-0.108684,-0.054140,-0.007796,-0.101056,0.112095,0.178172,-0.189990,-0.253473,-0.220787,-0.058055,-0.010996,-0.141810,-0.131466
フランス語ベーシック２A【１４】,-0.136176,0.018452,0.110142,-0.085516,-0.253170,0.050166,0.054085,0.095509,0.107106,0.194479,-0.303664,-0.082729,0.151094,-0.245933,-0.092105,-0.063156,-0.038632,-0.110369,-0.059728,0.096196,0.047289,0.119017,0.025707,0.114107,0.000660,-0.108096,0.082747,0.253732,0.170175,-0.139186,0.005511,0.014231,-0.032478,-0.006315,-0.149979,-0.161283,-0.237688,0.046351,0.105851,0.013789,0.057102,-0.093742,0.183491,0.107774,0.082031,-0.123142,-0.026096,-0.038766,0.056233,0.049383,0.019205,0.387971,-0.074445,0.098601,-0.300984,0.091916,0.005621,0.337829,-0.325197,0.197656,0.151663,0.046900,0.181770,0.032118,-0.248794,0.316065,0.259229,0.096677,-0.184510,-0.230411,0.039125,-0.163918,0.091137,0.031974,-0.104367,-0.094134,0.068951,-0.232969,0.011066,-0.072491,-0.161873,0.104648,-0.130896,-0.046610,-0.057195,0.368965,0.036019,0.129308,-0.019299,-0.139520,0.054866,0.130123,0.169360,0.013876,-0.160944,-0.139577,-0.216903,0.044026,0.195878,0.017614,-0.093462,-0.120113,0.117261,-0.067466,-0.050881,0.193691,-0.003234,-0.015208,-0.067483,-0.142825,0.050688,0.011113,0.145610,0.012100,-0.086097,0.037684,0.098723,-0.014724,-0.106536,-0.070764,-0.029405,-0.068661,0.101732,-0.236870,-0.085921,-0.131209,0.068637,-0.099836,0.084156,0.033562,0.223412,-0.009487,-0.060236,-0.122953,-0.029282,-0.067336,-0.220485,-0.088054,-0.074803,0.063593,-0.096365,-0.005166,0.137331,-0.096477,-0.078274,-0.135395,0.049627,-0.037329,0.141988,0.016538,0.177344,-0.125258,0.035482,0.186708,-0.148664,-0.106221,0.152078,-0.049612,-0.067962,-0.155980,0.063394,-0.088437,0.007683,0.028813,0.002943,-0.005683,0.039732,-0.197825,0.190607,0.118717,0.136024,0.029232,0.143253,0.025029,-0.056316,-0.119643,-0.094885,-0.015546,0.230151,0.010107,-0.068660,0.048228,0.067473,-0.090020,0.037377,-0.145140,0.052461,-0.096218,-0.047928,-0.015027,-0.082426,0.095887,0.169748,-0.157112,-0.207753,-0.199304,-0.064623,-0.021286,-0.133793,-0.107043
中国語ベーシック１A【１４】,0.084580,-0.089138,0.289735,0.103283,-0.034986,0.046896,-0.028875,0.084795,0.059929,-0.024341,-0.112745,-0.004257,0.145926,-0.075459,-0.152556,-0.293957,-0.079389,-0.105042,0.047531,0.101502,0.155308,0.157620,0.104011,0.151082,0.177119,0.100036,-0.116983,0.087995,0.143849,-0.219680,0.204195,-0.052985,-0.048406,0.077581,-0.071092,-0.091473,-0.153765,0.051936,0.247938,-0.103394,-0.156188,-0.098272,0.036009,0.051101,0.173308,0.055255,-0.142720,-0.213527,0.073409,0.025701,-0.050468,0.253631,-0.211508,-0.072496,-0.263601,-0.036616,0.026792,0.057153,-0.278241,0.166382,-0.190791,-0.066922,0.174666,0.158155,-0.218454,0.205494,0.101932,0.159306,-0.041443,-0.299345,0.243089,0.111543,0.185438,-0.090714,-0.215262,-0.074043,-0.008675,-0.254525,-0.050549,-0.025790,0.083116,0.244036,0.040630,-0.135633,-0.206771,0.216893,-0.113473,0.115772,-0.067973,-0.140934,0.278401,-0.071371,-0.021627,-0.287436,-0.193904,0.076122,-0.120571,0.171375,0.242830,0.078909,-0.224274,-0.015100,0.166263,-0.083781,-0.015886,0.063678,0.121492,-0.122895,-0.281717,-0.205957,0.077621,0.082403,0.402930,0.086710,-0.266992,-0.031978,0.047929,0.177697,-0.113019,0.059394,0.178615,0.041468,-0.107032,-0.224307,-0.080042,0.151400,-0.078689,0.162729,0.110457,0.128256,0.171554,-0.070169,0.125655,0.059928,0.043926,0.135553,-0.227031,-0.146186,-0.152527,0.145844,0.291449,-0.000887,-0.029791,0.182836,0.003492,-0.086932,-0.059263,0.050379,-0.022469,0.049707,0.301793,0.111151,0.192585,0.429888,-0.103710,-0.234847,0.238153,-0.156422,-0.129025,-0.032782,0.114816,-0.192138,-0.214832,-0.262766,0.189375,-0.059947,-0.004766,-0.298947,0.119964,0.103821,-0.093344,-0.149691,0.061914,0.160638,0.125077,0.003739,-0.063680,-0.060538,-0.091279,0.117193,0.007452,0.084850,-0.089882,-0.173006,0.028661,-0.168215,0.003091,-0.273745,-0.117117,-0.099411,-0.206970,0.240704,0.102389,0.097082,-0.062821,-0.019820,0.074898,0.241488,0.055690,0.047864
中国語ベーシック２【１４】,0.061144,-0.041994,0.426172,0.184933,-0.096018,0.097276,-0.025115,0.107711,0.069721,-0.112620,-0.070263,-0.001586,0.161765,-0.170198,-0.182581,-0.325143,-0.099841,-0.123890,0.056195,0.153657,0.356412,0.090344,0.147886,0.243359,0.320574,0.162124,-0.309285,0.070849,0.250346,-0.345316,0.261810,-0.144302,-0.038305,0.070074,-0.133350,-0.111102,-0.203643,0.081847,0.434115,-0.107206,-0.211886,-0.134666,0.001932,0.210056,0.343049,0.231266,-0.233981,-0.313096,0.034788,0.038122,-0.067667,0.293418,-0.329456,-0.277770,-0.269475,-0.051401,0.052525,-0.065177,-0.363180,0.205866,-0.280840,-0.034706,0.374838,0.347838,-0.311489,0.284585,0.207648,0.268658,0.017402,-0.393872,0.362921,0.111087,0.261866,-0.049540,-0.307917,-0.070863,-0.061242,-0.317616,-0.191090,-0.018069,0.098186,0.419366,0.112546,-0.082776,-0.271050,0.389654,-0.117051,0.224246,-0.168379,-0.160990,0.365359,-0.148175,-0.068026,-0.334413,-0.326894,-0.024905,-0.133747,0.259176,0.351155,0.097578,-0.280125,-0.142982,0.230551,-0.011271,0.006335,0.076208,0.228210,-0.187893,-0.386929,-0.296537,0.258312,0.200187,0.635877,0.153437,-0.455358,-0.081568,0.054355,0.236175,-0.070789,0.247792,0.237523,0.034544,-0.190028,-0.319777,0.013743,0.283051,-0.156952,0.259847,0.077411,0.097004,0.314677,-0.155852,0.220476,0.059600,0.077218,0.186171,-0.311479,-0.252706,-0.255879,0.142312,0.489248,0.002977,-0.164415,0.256863,-0.057927,-0.199400,-0.116582,0.065102,-0.089990,0.071143,0.357239,0.139030,0.316164,0.570591,-0.003523,-0.306176,0.291832,-0.249487,-0.049512,0.052616,0.280560,-0.285610,-0.283438,-0.298713,0.262227,-0.111030,0.052490,-0.463236,0.219007,0.235508,-0.178819,-0.091635,0.090097,0.131442,0.187343,0.032349,0.028735,-0.178678,-0.236729,0.173008,-0.060020,0.022771,-0.166056,-0.100138,0.083687,-0.224206,0.045588,-0.425390,-0.171258,-0.127373,-0.338820,0.454573,0.183077,0.088341,-0.169069,-0.015293,0.173453,0.494960,-0.012652,0.080923
中国語ベーシック３【１４】,0.056954,-0.043058,0.418147,0.176358,-0.092333,0.096171,-0.026513,0.108286,0.064348,-0.110186,-0.067770,-0.004601,0.163895,-0.158415,-0.179062,-0.322073,-0.090728,-0.122111,0.058535,0.145837,0.349608,0.087519,0.140959,0.236669,0.315153,0.161533,-0.301660,0.072640,0.248044,-0.336780,0.253665,-0.148813,-0.039401,0.074427,-0.131085,-0.116310,-0.205368,0.076111,0.424020,-0.106181,-0.209747,-0.131185,0.000266,0.199336,0.333334,0.224120,-0.235678,-0.308446,0.035597,0.037903,-0.065720,0.289338,-0.328179,-0.273534,-0.265515,-0.050795,0.051997,-0.063758,-0.362014,0.206123,-0.275480,-0.035764,0.370145,0.341951,-0.301719,0.277495,0.209073,0.271207,0.013953,-0.384554,0.356783,0.110633,0.260896,-0.052827,-0.303352,-0.076070,-0.060287,-0.316142,-0.183955,-0.020426,0.097657,0.412059,0.114314,-0.085850,-0.264575,0.383882,-0.121629,0.223264,-0.166366,-0.157119,0.359586,-0.147366,-0.067320,-0.331111,-0.321385,-0.019963,-0.129994,0.260509,0.347687,0.097900,-0.272733,-0.135464,0.230854,-0.008596,0.004050,0.077600,0.221414,-0.181906,-0.378112,-0.286331,0.251866,0.199603,0.626631,0.156015,-0.437070,-0.083846,0.058473,0.236549,-0.067221,0.242994,0.232008,0.034538,-0.186853,-0.311397,0.015665,0.276936,-0.158126,0.255785,0.078537,0.097484,0.309143,-0.156477,0.210326,0.058395,0.080051,0.186653,-0.302844,-0.255142,-0.247413,0.140504,0.482956,-0.002008,-0.158604,0.249061,-0.057758,-0.188314,-0.114415,0.069077,-0.087417,0.075672,0.348097,0.134402,0.310529,0.562097,-0.004517,-0.298838,0.283821,-0.248426,-0.050700,0.053315,0.274563,-0.281414,-0.279531,-0.291386,0.257899,-0.105456,0.052157,-0.450584,0.205795,0.225272,-0.172754,-0.089207,0.087195,0.133464,0.179400,0.042622,0.028683,-0.172768,-0.224998,0.171634,-0.060714,0.020024,-0.165269,-0.097655,0.080531,-0.221058,0.037142,-0.417747,-0.167835,-0.128814,-0.333857,0.442877,0.182633,0.090874,-0.163030,-0.018202,0.171940,0.482539,-0.011830,0.082142
朝鮮語ベーシック１A【１４】,0.048643,-0.054730,0.123645,0.013964,-0.000425,0.039460,0.013098,0.021652,0.069774,-0.000714,-0.113281,0.003097,0.037545,-0.128707,-0.044825,-0.089485,-0.077761,-0.020647,-0.011873,0.018182,0.048730,0.095647,0.005925,0.058571,0.032497,-0.016164,-0.012452,0.036659,0.078055,-0.064092,0.020422,0.063707,-0.046641,-0.025565,-0.060069,-0.022068,-0.054109,0.036331,0.100943,-0.021644,-0.028925,-0.041910,0.072725,0.084667,0.058292,0.027770,0.001915,-0.086688,0.008309,-0.004090,-0.015974,0.132437,-0.003269,0.046511,-0.102585,-0.004930,-0.005955,0.117465,-0.125186,0.054724,-0.009257,0.007201,0.033572,0.050335,-0.115739,0.134573,0.082675,0.037409,-0.029253,-0.140763,0.064749,-0.029994,0.061264,-0.014540,-0.067763,0.021888,0.021939,-0.104547,0.011789,0.017623,-0.001421,0.051589,-0.054685,0.025498,-0.051221,0.081887,0.032964,0.019012,-0.009481,-0.058509,0.084236,0.024752,0.094369,-0.026419,-0.019325,-0.008319,-0.110230,0.017497,0.097605,0.038891,-0.061169,-0.023559,0.007660,-0.064696,-0.023762,0.021869,0.079562,0.009034,-0.099141,-0.079811,0.002721,0.006142,0.105478,-0.006858,-0.113833,0.047651,0.039557,0.040099,-0.040833,-0.003790,0.038519,-0.008609,0.008670,-0.117537,-0.057314,0.024030,0.023990,0.031295,0.057787,0.043221,0.081029,-0.012110,0.041810,-0.021453,-0.002657,0.018167,-0.104425,0.003646,-0.043611,0.039780,0.024513,0.013635,0.011448,0.007358,0.029038,-0.050962,-0.019296,-0.026522,0.019090,-0.011357,0.101182,0.005832,0.021459,0.142507,-0.022653,-0.092344,0.082736,-0.044464,-0.040550,-0.085503,0.059678,-0.041023,-0.051054,-0.038568,0.037422,-0.050421,-0.029518,-0.114686,0.093396,0.049445,-0.029311,-0.015136,0.053722,0.063217,0.026810,-0.057898,-0.032496,-0.013129,-0.023745,0.014993,0.037995,0.052214,-0.004011,-0.071952,0.004325,-0.028546,0.035515,-0.088827,-0.022652,-0.014977,-0.032281,0.105369,0.021360,-0.002845,-0.071328,0.034630,0.042726,0.051116,-0.103704,0.013363
朝鮮語ベーシック２【１４】,0.027526,-0.021614,0.066580,-0.007814,-0.005846,0.012799,-0.000535,0.019745,0.040912,0.010016,-0.070623,-0.003616,0.034045,-0.063632,-0.029476,-0.049481,-0.015457,-0.020058,-0.004965,0.003659,0.008904,0.060370,0.002443,0.019032,0.021360,-0.019594,-0.010375,0.023811,0.037814,-0.054800,0.022409,0.034778,-0.027090,-0.010900,-0.015490,-0.022613,-0.040039,0.002910,0.077591,-0.009930,-0.006634,-0.049245,0.048841,0.027557,0.022512,0.004668,-0.016917,-0.067122,0.013290,0.020145,0.018453,0.086365,-0.039472,0.034600,-0.065647,0.004261,-0.009206,0.097026,-0.085921,0.033245,-0.007145,0.005279,0.036556,0.031156,-0.066984,0.078106,0.059361,0.029042,-0.047481,-0.084596,0.025889,-0.010978,0.024168,-0.003100,-0.054413,0.007780,0.017429,-0.065357,0.017491,-0.008051,-0.001892,0.054840,-0.032170,0.000848,-0.043180,0.076306,-0.008386,0.031662,-0.023221,-0.045145,0.050797,0.016856,0.035502,-0.029952,-0.020141,-0.020664,-0.077846,0.053032,0.065442,0.011865,-0.037472,0.008220,0.012719,-0.044636,0.005575,0.021630,0.043532,-0.001761,-0.073272,-0.014235,-0.005595,0.000725,0.084693,0.027707,-0.069109,-0.011751,0.013891,0.033190,-0.047442,-0.029322,0.035435,-0.010006,0.000725,-0.076269,-0.024067,0.006766,-0.001919,0.022239,0.030945,0.034513,0.054964,0.002882,0.042541,-0.008586,-0.001634,-0.003384,-0.079694,-0.019403,-0.025293,0.022055,0.031421,-0.001382,0.011446,0.015332,-0.001354,-0.024631,-0.005878,0.013445,0.003713,0.009138,0.057465,0.010171,0.020759,0.109749,-0.013433,-0.046271,0.042587,-0.043700,-0.035690,-0.068350,0.038170,-0.018448,-0.040147,-0.020235,0.003898,-0.019848,-0.036583,-0.073666,0.043150,0.025115,-0.013167,-0.020161,0.029398,0.045984,0.018477,-0.020747,-0.033912,0.005311,-0.007780,0.012708,0.035288,0.023773,-0.021589,-0.046480,0.016859,-0.046672,-0.006270,-0.056391,-0.006770,-0.008363,-0.007374,0.056606,0.027606,0.015238,-0.047466,0.019800,0.058543,0.029974,-0.082343,0.003846
マレー・インドネシア語ベーシック１A【１４】,0.048138,-0.037810,0.103179,0.040035,-0.002419,0.036916,-0.005625,0.044283,0.077569,0.002417,-0.124011,-0.025846,0.061781,-0.112676,-0.050428,-0.067515,0.008322,-0.064362,-0.001712,0.005825,0.024015,0.099683,0.030299,0.050661,0.053415,-0.019459,-0.063446,0.026778,0.080205,-0.125990,0.015968,0.043261,-0.033019,-0.003589,-0.014678,-0.048207,-0.083299,-0.022925,0.130602,-0.035481,-0.007266,-0.065700,0.057902,0.053418,0.069014,0.015543,-0.017222,-0.098768,0.040759,0.030387,0.041165,0.173209,-0.087178,0.030871,-0.121614,0.004642,-0.011456,0.121183,-0.147694,0.071624,-0.022322,0.019619,0.076406,0.042350,-0.080949,0.117486,0.110016,0.086404,-0.061326,-0.164257,0.068813,-0.009592,0.029838,0.006961,-0.067339,0.008217,0.060006,-0.126766,0.010022,-0.022472,-0.018234,0.118994,-0.033052,-0.036921,-0.097912,0.146770,0.007183,0.082371,-0.046311,-0.070705,0.099915,-0.006171,0.036061,-0.068879,-0.059346,-0.052054,-0.106881,0.104875,0.120608,0.033942,-0.063159,0.029789,0.061300,-0.093497,-0.019082,0.024678,0.072743,-0.034056,-0.108904,0.011738,-0.003675,0.034660,0.157908,0.028269,-0.148333,-0.004289,0.035424,0.023989,-0.036073,-0.027098,0.055590,-0.019100,-0.004462,-0.144924,-0.011051,0.015494,-0.031229,0.009003,0.059951,0.042901,0.114133,-0.008816,0.060155,-0.017795,0.008070,0.012815,-0.120180,-0.048499,-0.060543,0.033057,0.078298,-0.004871,-0.020844,0.000316,-0.003670,-0.062949,-0.027125,-0.005034,-0.005215,0.036277,0.085215,-0.001275,0.056863,0.204222,-0.017432,-0.051645,0.063538,-0.069122,-0.065449,-0.049163,0.119732,-0.046393,-0.079896,-0.052637,0.013507,-0.027558,-0.046676,-0.132886,0.065535,0.047988,-0.038195,-0.022284,0.043514,0.080772,0.053239,-0.013573,-0.069518,-0.007185,-0.020787,0.014665,0.022107,0.023203,-0.052991,-0.035628,0.031408,-0.078122,-0.032064,-0.124277,-0.049991,-0.008976,-0.051096,0.105746,0.093233,0.035127,-0.017955,-0.010253,0.004292,0.010264,-0.033082,-0.006697
マレー・インドネシア語ベーシック２【１４】,0.032052,-0.054688,0.089648,-0.004313,-0.013260,0.033180,-0.014556,0.041041,0.072016,0.030147,-0.138120,-0.034387,0.055841,-0.103566,-0.034969,-0.091857,0.000273,-0.053158,-0.007945,0.020860,-0.015538,0.117184,0.015486,0.043363,0.033309,-0.029425,-0.034846,0.058366,0.046806,-0.094728,0.018617,0.040120,-0.049664,0.003824,-0.015003,-0.066513,-0.078351,-0.025764,0.130055,-0.035397,-0.006619,-0.078203,0.068483,0.039862,0.032329,-0.012376,-0.022187,-0.109472,0.057550,0.027662,0.035505,0.163395,-0.070601,0.062074,-0.142534,0.004560,-0.020542,0.176557,-0.159968,0.081860,-0.005879,0.021371,0.065131,0.042089,-0.101791,0.128681,0.117503,0.074312,-0.089714,-0.170677,0.044162,-0.007724,0.018024,0.004514,-0.090501,-0.017931,0.042774,-0.113345,0.050520,-0.015271,-0.017224,0.107349,-0.056209,-0.035609,-0.105803,0.135818,-0.012043,0.059490,-0.038642,-0.086585,0.073051,0.021205,0.055449,-0.078572,-0.051654,-0.014195,-0.104865,0.090499,0.109714,0.027514,-0.070810,0.051667,0.043446,-0.087378,-0.015929,0.039819,0.063763,0.001734,-0.128217,0.013184,-0.034757,0.022293,0.169017,0.048687,-0.117062,-0.023070,0.037728,0.057707,-0.071898,-0.082892,0.048978,-0.024475,-0.003629,-0.136796,-0.038009,-0.018212,-0.004840,0.003773,0.072948,0.054723,0.097592,0.009786,0.037535,-0.017924,-0.010871,-0.001099,-0.133836,-0.058798,-0.030767,0.042226,0.059367,-0.007432,0.049672,0.026566,-0.020815,-0.032186,-0.019304,0.029240,0.021476,0.053352,0.090757,0.023086,0.041329,0.204527,-0.046189,-0.062339,0.068412,-0.072666,-0.077226,-0.114199,0.062941,-0.040705,-0.078549,-0.043128,-0.005497,-0.044796,-0.082700,-0.134451,0.071745,0.030512,-0.017052,-0.035220,0.023835,0.081061,0.024565,0.003073,-0.079660,0.020425,0.019358,0.035787,0.051604,0.047496,-0.035077,-0.080344,0.055042,-0.095861,-0.043349,-0.105817,-0.029453,-0.032945,-0.012760,0.088117,0.074913,0.039776,-0.037615,0.004988,0.048223,0.015060,-0.082131,-0.017758
スペイン語ベーシック１A【１４】,0.034940,-0.023997,0.071184,-0.014711,-0.016730,0.018527,0.008918,0.012608,0.066193,-0.005585,-0.110277,-0.011050,0.033093,-0.112236,-0.040541,-0.034621,-0.022396,-0.004983,-0.023695,0.006647,0.012010,0.088140,-0.022360,0.022426,0.016827,-0.036062,0.012552,0.021939,0.055091,-0.079281,0.018432,0.052040,-0.033416,-0.012055,-0.031643,-0.029977,-0.047879,0.006321,0.092240,0.001651,0.004537,-0.071114,0.085445,0.051545,0.022489,0.016581,-0.032243,-0.081192,0.002388,0.041455,0.032929,0.122224,-0.042930,0.041763,-0.086288,0.014042,-0.025417,0.157627,-0.101563,0.045033,0.004377,0.018558,0.052410,0.033613,-0.111620,0.134429,0.099522,0.014216,-0.077012,-0.105879,0.028034,-0.037396,0.015446,-0.007867,-0.073781,0.044221,0.041720,-0.082244,0.012448,-0.008867,-0.012175,0.073857,-0.059462,0.003782,-0.050363,0.105386,0.010665,0.059497,-0.033485,-0.062211,0.069742,0.044448,0.067725,-0.014126,-0.001953,-0.072899,-0.110608,0.077046,0.107997,0.021778,-0.049383,-0.001972,0.022274,-0.047886,0.007283,0.044016,0.056292,-0.003071,-0.071367,-0.019812,-0.005362,-0.039504,0.085060,0.028451,-0.092367,-0.009569,0.022457,0.025800,-0.061939,-0.043788,0.043715,-0.038460,0.003681,-0.111475,-0.024924,0.003309,0.010422,0.026672,0.038429,0.032195,0.072922,-0.000516,0.062967,-0.010610,-0.013248,-0.028743,-0.108959,-0.002560,-0.045822,0.024481,0.021200,0.015319,-0.000182,0.006479,0.010344,-0.067936,0.003806,0.000569,0.003329,-0.009486,0.071328,-0.013362,0.021688,0.144941,-0.020384,-0.051238,0.063222,-0.044220,-0.052947,-0.095245,0.055916,-0.013499,-0.048366,0.000646,-0.014812,-0.010620,-0.046076,-0.089518,0.061987,0.021968,-0.003605,0.000993,0.045494,0.049450,0.016305,-0.046236,-0.049839,0.008407,-0.011458,-0.003552,0.034156,0.038723,-0.020899,-0.063509,0.014963,-0.052796,0.024247,-0.076280,0.001367,0.010835,0.019346,0.080240,0.052786,-0.000232,-0.093213,0.030590,0.067496,0.019848,-0.138847,-0.027794
スペイン語ベーシック２【１４】,0.028884,-0.021168,0.144759,0.018700,-0.004827,0.071013,0.022276,0.047655,0.119898,-0.038764,-0.205905,-0.023871,0.094437,-0.233708,-0.100779,-0.036804,-0.028894,-0.046353,-0.028953,0.007136,0.064342,0.154004,-0.001620,0.069098,0.083182,-0.054985,-0.059185,0.016594,0.152339,-0.182690,0.038020,0.050655,-0.044173,-0.005581,-0.069969,-0.062489,-0.114225,-0.002036,0.212760,0.001460,0.029975,-0.143639,0.127318,0.132047,0.085840,0.062574,-0.050381,-0.192573,0.004144,0.075096,0.085546,0.233759,-0.105582,0.048995,-0.163170,0.009360,-0.021797,0.224977,-0.199459,0.080491,0.002641,0.049017,0.138292,0.083626,-0.189520,0.221351,0.206244,0.075907,-0.139630,-0.232003,0.083198,-0.054616,0.056798,0.000213,-0.122277,0.070349,0.088407,-0.183631,-0.001645,-0.049078,-0.014865,0.180097,-0.092756,-0.002997,-0.103675,0.242127,0.026739,0.150407,-0.064478,-0.123975,0.142122,0.035541,0.107517,-0.045474,-0.070140,-0.182388,-0.213606,0.131089,0.253655,0.041809,-0.091996,-0.051569,0.087974,-0.090610,-0.012389,0.086043,0.141351,-0.044698,-0.141103,-0.041792,0.046084,-0.006259,0.187500,0.077901,-0.245741,0.003494,0.044768,0.048876,-0.080744,-0.000951,0.091606,-0.078251,0.004554,-0.252317,0.008164,0.043393,-0.016692,0.059853,0.062725,0.064329,0.202379,-0.036041,0.124101,-0.009629,0.012385,-0.029592,-0.202434,-0.053400,-0.086090,0.053119,0.070351,0.013436,-0.076453,-0.015915,0.028423,-0.149123,-0.033661,0.005721,-0.016134,-0.005823,0.157187,-0.059332,0.072600,0.316559,-0.003444,-0.079181,0.108533,-0.111049,-0.067434,-0.128144,0.187303,-0.027162,-0.098256,0.012091,0.001997,-0.016352,-0.061819,-0.207073,0.136736,0.074459,-0.043183,0.026030,0.095018,0.086565,0.035424,-0.072781,-0.086639,-0.016868,-0.054468,0.000240,0.016272,0.030493,-0.080570,-0.053561,0.014727,-0.116527,0.050258,-0.189513,-0.029362,0.015846,-0.027944,0.200903,0.121971,-0.006249,-0.144759,0.028900,0.079809,0.062680,-0.167106,-0.049394
アラビア語ベーシック１A【１４】,0.099507,-0.010082,0.224179,0.088155,-0.068981,0.110246,0.078151,0.079856,0.096197,0.013859,-0.170461,0.037154,0.132974,-0.121028,-0.134321,-0.038723,-0.013440,-0.102551,-0.002241,0.100739,0.091850,0.182264,0.079337,0.027282,0.053085,-0.035617,-0.014773,0.046274,0.155727,-0.180489,0.152072,0.016161,0.039521,-0.079507,-0.032577,0.015094,-0.172329,0.034802,0.180422,0.028179,0.082669,-0.147200,0.051218,0.030710,0.192390,0.025573,-0.045903,-0.072385,-0.052703,0.025235,0.101227,0.299499,-0.143403,0.060826,-0.097502,-0.016915,-0.002446,0.181836,-0.166199,0.063195,-0.012062,0.044908,0.133262,0.058326,-0.112341,0.244226,0.205060,0.019806,-0.150845,-0.186149,0.029641,-0.057677,0.069988,0.015160,-0.160204,0.034285,0.074591,-0.235156,-0.080314,-0.048294,0.013511,0.131490,-0.046369,-0.002641,-0.044012,0.306987,-0.043082,0.129423,0.006009,-0.070418,0.130348,0.029544,0.051689,-0.028661,-0.081094,-0.181063,-0.297892,0.243157,0.218895,0.055621,-0.073299,-0.054239,0.039671,-0.158214,0.032841,0.093136,0.097095,-0.127472,-0.105354,-0.129862,0.099673,0.007126,0.179454,-0.014616,-0.230504,-0.041310,-0.042606,0.004802,-0.088536,0.037445,0.112513,0.002272,0.029400,-0.228686,0.017197,0.103689,-0.027110,0.042103,0.013292,0.102709,0.201726,-0.019734,0.161960,-0.006913,0.076423,-0.069199,-0.180765,-0.005236,-0.104670,0.048899,0.112868,0.026432,-0.076733,0.015581,0.045325,-0.119502,0.056543,-0.080801,-0.059002,0.009248,0.157747,-0.008574,0.077495,0.325945,-0.017715,-0.139723,0.172175,-0.106287,-0.059473,-0.078597,0.168216,-0.114168,-0.045375,-0.036811,0.049982,-0.033229,-0.021170,-0.227217,0.062696,0.140418,-0.063501,-0.071254,0.162437,0.026906,0.163407,-0.171934,-0.071780,0.009852,-0.031046,-0.044550,-0.003293,0.072617,-0.041991,-0.018399,-0.013014,-0.014932,0.064415,-0.140129,-0.064268,0.052855,-0.103968,0.161217,0.123784,-0.019874,-0.088445,-0.043744,-0.004304,0.048553,-0.027793,-0.033069
日本語ベーシック１【１４】,0.016208,-0.055581,0.040482,-0.075736,0.000500,-0.019484,-0.053384,-0.000142,0.040362,0.007726,-0.118922,-0.030076,-0.022374,-0.068444,0.011683,-0.105872,-0.031901,-0.021068,-0.011940,0.008748,-0.067507,0.094623,-0.059894,0.039437,0.004279,-0.007497,0.008652,0.075700,-0.031250,-0.002288,-0.025284,0.041851,-0.078505,0.024997,-0.043066,-0.082907,-0.024485,-0.028599,0.035136,-0.035125,-0.042125,-0.023888,0.071584,0.015268,-0.065819,-0.059530,-0.020260,-0.086233,0.080112,0.008206,-0.021866,0.054848,0.029185,0.086712,-0.144719,0.009366,-0.025373,0.160431,-0.118230,0.065464,-0.005667,0.003234,-0.007480,0.033944,-0.125731,0.097929,0.055013,0.032889,-0.053373,-0.117198,0.037122,-0.006215,-0.018626,-0.021084,-0.077626,-0.017146,-0.001087,-0.017329,0.105624,0.035310,-0.012664,0.038268,-0.057143,-0.049103,-0.080015,-0.026744,-0.019017,-0.033297,0.016142,-0.098799,-0.017584,0.058816,0.062520,-0.090230,0.024432,0.091322,0.006638,-0.040057,0.043370,0.011877,-0.096083,0.057944,0.031768,-0.027901,-0.022306,0.031525,0.043603,0.078709,-0.075896,0.003070,-0.088272,-0.014352,0.081248,0.035428,-0.014468,0.036937,0.041880,0.083876,-0.079038,-0.113699,-0.005881,-0.027856,-0.015537,-0.050937,-0.106276,-0.075690,0.052986,-0.031891,0.091488,0.035372,0.006522,0.011360,-0.070940,-0.012459,-0.043449,0.022475,-0.097565,-0.040626,-0.000983,0.061755,-0.032414,-0.011615,0.129532,0.032196,-0.017985,0.030222,-0.057528,0.059205,0.054126,0.024460,0.074955,0.061261,0.004075,0.110294,-0.106670,-0.037030,0.029485,-0.011809,-0.077695,-0.134038,-0.064143,-0.000344,-0.062240,-0.033270,-0.027078,-0.006892,-0.103960,-0.053917,0.096619,-0.024740,0.025766,-0.018439,-0.029818,0.059023,-0.066086,0.054713,-0.087534,0.025218,0.072045,0.047023,0.081664,0.066062,0.036758,-0.135370,0.064635,-0.093483,-0.029508,-0.048538,-0.013775,-0.091574,0.061489,0.001350,0.024718,0.050398,-0.057062,0.067354,0.117107,0.004803,-0.182645,-0.021048
日本語ベーシック２【１４】,-0.008598,-0.064857,0.020126,-0.067237,0.007688,-0.033654,-0.066715,-0.003140,0.034460,0.001867,-0.102706,-0.046810,-0.036683,-0.070748,0.020328,-0.115339,-0.017487,-0.034020,-0.003021,-0.005003,-0.055128,0.069002,-0.050655,0.063583,0.014690,0.004981,-0.034044,0.074157,-0.033761,-0.009539,-0.045150,0.031076,-0.083265,0.056682,-0.048439,-0.096570,-0.011024,-0.037758,0.050095,-0.048337,-0.069399,-0.014174,0.073521,0.040713,-0.077219,-0.048757,-0.012506,-0.101940,0.099721,0.012666,-0.042954,0.041010,0.019308,0.059447,-0.156092,0.002279,-0.011310,0.122350,-0.122704,0.082021,-0.027924,-0.008130,0.002244,0.051926,-0.122143,0.066323,0.042808,0.058867,-0.030909,-0.135521,0.063659,0.011100,-0.020155,-0.024042,-0.068263,-0.031273,-0.007795,-0.005094,0.110816,0.035467,-0.024294,0.052261,-0.045324,-0.052683,-0.107103,-0.035529,0.005913,-0.031481,-0.006345,-0.087362,-0.005287,0.042514,0.044490,-0.115963,-0.020399,0.116696,0.041594,-0.063642,0.044583,0.016388,-0.109621,0.056564,0.040097,-0.001635,-0.043550,0.022995,0.055856,0.086642,-0.094446,0.020730,-0.075272,0.013872,0.115381,0.063911,-0.033580,0.037435,0.056317,0.106682,-0.075619,-0.108077,-0.010651,-0.027187,-0.034337,-0.063970,-0.102181,-0.075997,0.033690,-0.032135,0.105368,0.009069,0.003549,-0.000464,-0.080668,-0.015398,-0.052390,0.049985,-0.096199,-0.071431,-0.013659,0.053071,-0.016422,-0.020414,0.129226,0.042017,-0.050549,0.030610,-0.096205,0.091335,0.068485,0.040707,0.086316,0.067358,0.024761,0.110070,-0.106914,-0.023297,0.023816,-0.005943,-0.060086,-0.113850,-0.053578,0.002436,-0.089816,-0.048293,-0.024445,-0.008242,-0.104518,-0.071421,0.109928,-0.018115,0.016307,-0.005183,-0.061123,0.070047,-0.078770,0.094939,-0.071871,-0.008003,0.061636,0.072474,0.074907,0.058958,0.014844,-0.129374,0.082921,-0.124989,-0.040733,-0.063036,-0.030403,-0.107554,0.052136,0.020316,0.028137,0.052656,-0.049535,0.071799,0.114151,0.034967,-0.171975,-0.013183
日本語ベーシック３【１４】,0.017299,0.005291,0.037680,-0.041989,-0.003025,-0.006185,-0.014394,0.012048,0.048395,-0.009171,-0.062936,0.011353,-0.002294,-0.058002,-0.014338,-0.032377,-0.022040,-0.012620,-0.009944,0.015638,-0.015946,0.060550,-0.031758,0.011198,0.022177,-0.021730,-0.005561,0.031403,-0.007978,-0.040148,0.033193,0.046273,-0.045029,-0.031982,-0.020546,-0.025115,-0.020488,-0.009168,0.051372,0.000830,-0.003820,-0.048595,0.039379,0.018704,-0.006212,-0.033143,-0.026587,-0.054786,0.025004,0.031427,0.021959,0.040377,-0.006074,0.057820,-0.059303,0.011797,-0.018254,0.124475,-0.067403,0.008945,-0.010733,0.002283,0.012102,0.042910,-0.082880,0.074258,0.042003,-0.003010,-0.045336,-0.064260,0.005513,-0.019006,-0.009094,0.015774,-0.082120,0.025759,0.002119,-0.016082,0.025799,0.006356,-0.005906,0.040034,-0.045367,-0.015572,-0.030595,0.021876,-0.026681,0.010910,-0.011179,-0.082435,-0.007249,0.045680,0.027070,-0.048634,0.000611,-0.019045,-0.039395,0.023564,0.051295,-0.003303,-0.061283,0.002771,0.014186,-0.028637,0.028343,0.020425,0.052724,0.018847,-0.049747,-0.011384,-0.014208,-0.014654,0.063026,0.045590,-0.068367,-0.014218,-0.000067,0.034315,-0.073918,-0.047072,0.017438,-0.021347,-0.021223,-0.048661,-0.056339,-0.023807,0.025201,0.001442,0.032405,0.035765,0.032487,0.022914,0.005853,0.009868,-0.011167,-0.022893,-0.097839,-0.013711,-0.025381,0.034166,0.000666,-0.016008,0.049599,0.031617,-0.017848,-0.000174,-0.020538,0.044105,-0.017340,0.000579,0.052310,0.050744,0.018621,0.100856,-0.034950,-0.025703,0.033381,-0.034518,-0.039414,-0.090833,-0.012435,-0.000732,-0.034820,0.008278,-0.018984,0.009149,-0.064131,-0.067368,0.077178,0.022731,0.012217,-0.022794,0.017949,0.014939,-0.014960,-0.037438,-0.042665,0.009646,0.012276,0.017362,0.065162,0.039506,-0.001914,-0.077408,0.021651,-0.082640,-0.014208,-0.037456,0.002683,-0.020955,0.036559,0.031940,0.017005,0.017427,-0.062767,0.040619,0.088198,0.017005,-0.136878,-0.019567
日本語ベーシック４【１４】,-0.005701,-0.018589,0.069498,-0.020268,0.013556,-0.013025,-0.001911,0.015333,0.053523,-0.016914,-0.078337,0.009221,0.014257,-0.088291,-0.028427,-0.029656,-0.020276,-0.038992,-0.019171,-0.009574,0.013187,0.044801,-0.013025,0.058767,0.048306,-0.025320,-0.049981,0.006640,0.042728,-0.068340,0.024674,0.039319,-0.060008,-0.005594,-0.036936,-0.070010,-0.024972,-0.000471,0.093307,-0.000796,-0.020523,-0.057975,0.047934,0.062324,0.025339,-0.013602,-0.030177,-0.096341,0.032485,0.034542,0.039228,0.073683,-0.048851,0.036648,-0.096590,-0.001899,-0.007938,0.112709,-0.092745,0.024047,0.011083,0.021973,0.029699,0.056793,-0.094198,0.083561,0.053198,0.049650,-0.043278,-0.103984,0.045508,-0.025839,0.008366,-0.002862,-0.050761,0.022562,0.019115,-0.049593,0.025600,-0.018544,-0.026318,0.087989,-0.055918,-0.023706,-0.062776,0.050823,-0.002483,0.063963,-0.042396,-0.077701,0.047620,0.028892,0.029638,-0.068699,-0.046069,-0.049959,-0.073327,0.030779,0.104680,0.010859,-0.072536,-0.021123,0.043031,-0.041649,-0.007824,0.017165,0.081992,0.010703,-0.075782,-0.006780,0.011156,0.013815,0.094888,0.064786,-0.118507,0.008866,0.023542,0.041377,-0.061376,-0.040691,0.024938,-0.041076,-0.025000,-0.114447,-0.039618,-0.001028,-0.001811,0.028081,0.050269,0.022142,0.067649,0.015107,0.019118,0.012690,-0.006348,-0.002498,-0.122031,-0.043350,-0.045680,0.045794,0.032250,-0.017801,0.024016,-0.005774,-0.013492,-0.023261,-0.052083,0.053635,0.000077,0.016836,0.079729,0.029523,0.014378,0.137894,-0.036548,-0.026844,0.033887,-0.051679,-0.028236,-0.067123,0.056168,-0.000004,-0.047015,-0.009059,-0.005316,-0.013422,-0.048493,-0.096454,0.083460,0.024797,-0.003316,0.019480,0.038850,0.053067,-0.015962,-0.023716,-0.034511,-0.028247,-0.007381,0.034686,0.044216,0.010355,-0.034185,-0.063082,0.024156,-0.123343,-0.015103,-0.078351,-0.009882,-0.043319,0.001745,0.093866,0.041053,0.010245,-0.075874,0.030775,0.062324,0.029538,-0.127195,0.006168
日本語ベーシック１（演習）【１４】,0.032958,-0.090270,0.054977,-0.119089,0.006442,-0.024581,-0.072393,0.007466,0.068021,0.022253,-0.180754,-0.053101,-0.017393,-0.116995,0.003025,-0.161848,-0.045001,-0.029841,-0.020162,0.012047,-0.101734,0.155111,-0.077574,0.063405,-0.000640,-0.023229,0.023253,0.121970,-0.048221,-0.000909,-0.045449,0.080953,-0.123203,0.034688,-0.062080,-0.126788,-0.035451,-0.055270,0.046525,-0.049105,-0.054233,-0.031400,0.115175,0.026605,-0.102141,-0.094885,-0.023860,-0.126407,0.120309,0.020889,-0.040505,0.098258,0.046410,0.144766,-0.222470,0.016024,-0.038422,0.261989,-0.185332,0.095702,-0.000927,-0.002357,-0.019262,0.036111,-0.182208,0.158292,0.089310,0.045368,-0.091855,-0.179724,0.047850,-0.017109,-0.022507,-0.021557,-0.106621,-0.021659,0.015417,-0.040321,0.159527,0.059444,-0.028555,0.051949,-0.095441,-0.066426,-0.115707,-0.032465,-0.012377,-0.049482,0.022365,-0.144456,-0.022675,0.094678,0.093923,-0.130697,0.043235,0.138237,-0.000110,-0.056687,0.071281,0.017208,-0.146946,0.094906,0.051357,-0.055244,-0.032170,0.049263,0.070471,0.122869,-0.117830,0.002007,-0.137924,-0.024992,0.113227,0.050911,-0.031795,0.053584,0.067270,0.109191,-0.124076,-0.195242,-0.013026,-0.044014,-0.019997,-0.083281,-0.161450,-0.127436,0.078498,-0.054610,0.144639,0.059262,0.010603,0.021159,-0.099992,-0.024629,-0.066853,0.024284,-0.137853,-0.058822,0.002559,0.089833,-0.059959,-0.021926,0.206047,0.044319,-0.026959,0.044076,-0.078203,0.081690,0.092594,0.037713,0.119837,0.090099,0.002823,0.159289,-0.181262,-0.052791,0.045021,-0.017259,-0.123136,-0.212844,-0.089987,-0.001569,-0.103035,-0.050177,-0.048789,-0.011111,-0.165310,-0.081053,0.145143,-0.050857,0.043768,-0.030827,-0.039658,0.097214,-0.097720,0.071502,-0.133915,0.047543,0.120469,0.072786,0.126918,0.103289,0.060150,-0.208008,0.095539,-0.143479,-0.051886,-0.067825,-0.026032,-0.131066,0.100685,0.005970,0.034288,0.069434,-0.092940,0.099719,0.167491,-0.006145,-0.276541,-0.043504
日本語ベーシック２（演習）【１４】,0.011257,0.007015,0.101665,-0.044599,-0.045866,-0.000877,-0.011611,0.058966,0.057025,0.004029,-0.072745,0.034673,0.036284,-0.080323,-0.045581,-0.042445,0.000935,-0.041838,-0.005629,0.016062,0.030224,0.065493,-0.013364,0.018579,0.050158,-0.041047,-0.038610,0.049502,0.026047,-0.093699,0.066193,0.050526,-0.062453,-0.057319,-0.019424,-0.064281,-0.071021,-0.010976,0.116152,0.007648,-0.006026,-0.091575,0.055862,0.026820,0.041109,-0.020166,-0.073798,-0.088549,0.019425,0.060101,0.066523,0.100847,-0.085856,0.054013,-0.092015,0.023994,-0.013471,0.176259,-0.132127,0.022147,-0.000454,0.018285,0.075230,0.087484,-0.097017,0.130073,0.103103,0.037040,-0.076394,-0.098572,0.005897,-0.032647,0.010393,0.039031,-0.103989,0.011476,-0.007020,-0.086471,0.008704,-0.010070,-0.023235,0.088987,-0.063840,-0.009672,-0.054265,0.120853,-0.060509,0.076451,-0.057105,-0.122254,0.037583,0.045194,0.020669,-0.070894,-0.035869,-0.062029,-0.100433,0.107044,0.098510,0.011319,-0.092269,-0.007500,0.050590,-0.060648,0.060290,0.035781,0.092400,-0.000865,-0.112596,-0.016085,0.025073,0.008377,0.137214,0.078662,-0.106036,-0.057273,-0.000853,0.038562,-0.091658,-0.051073,0.031940,-0.026562,-0.038124,-0.105266,-0.043096,-0.008400,-0.008125,0.016110,0.029143,0.053092,0.107040,0.028236,0.050017,0.004153,0.009883,-0.034083,-0.151531,-0.059739,-0.050154,0.044095,0.054698,-0.047822,0.045781,0.019904,-0.031978,-0.002416,0.010355,0.070308,-0.019868,0.028143,0.078987,0.058172,0.030353,0.156363,-0.030843,-0.055561,0.055997,-0.087560,-0.053503,-0.096603,0.037721,-0.041802,-0.045361,-0.002851,-0.016427,0.002151,-0.053273,-0.120745,0.085383,0.039620,0.014158,-0.022556,0.060910,0.033933,0.013045,-0.044506,-0.025365,-0.001431,0.011929,0.039245,0.070783,0.017666,-0.039418,-0.063335,0.033402,-0.131300,-0.049541,-0.059338,0.003928,-0.039619,0.009511,0.091762,0.067655,0.009238,-0.117580,0.024661,0.161329,0.061568,-0.240417,0.007017
日本語ベーシック３（演習）【１４】,0.021651,0.046070,0.070466,-0.056820,-0.019873,0.003354,-0.014923,0.004473,0.086650,-0.035374,-0.103210,0.039562,-0.019778,-0.099099,-0.036736,-0.003965,-0.023924,-0.017092,-0.019271,0.050199,-0.009851,0.081652,-0.059819,0.017243,0.029439,-0.047051,-0.005219,0.034441,0.008953,-0.066294,0.064474,0.046874,-0.048248,-0.062675,-0.051131,-0.035206,-0.038872,-0.004299,0.086004,0.022531,0.016800,-0.098401,0.027643,0.022906,-0.001055,-0.044442,-0.062274,-0.081480,0.013504,0.046437,0.057740,0.070554,-0.001852,0.074320,-0.065695,0.016044,-0.038516,0.195701,-0.083804,-0.003305,-0.003107,0.043948,0.051775,0.071929,-0.132629,0.149563,0.084831,-0.021242,-0.071097,-0.086016,-0.010367,-0.051552,-0.040575,0.027264,-0.135521,0.058906,0.002008,-0.008499,0.017288,0.011936,-0.010298,0.075665,-0.084570,-0.013453,-0.031196,0.046302,-0.056872,0.024757,-0.013530,-0.154792,-0.026826,0.073422,0.044641,-0.067030,0.018431,-0.090665,-0.081056,0.032152,0.100501,-0.020325,-0.075475,-0.026502,0.029787,-0.043646,0.061442,0.033819,0.085742,0.012233,-0.055509,-0.021668,-0.008668,-0.016181,0.095807,0.065411,-0.103885,-0.023209,-0.007475,0.041588,-0.112750,-0.042047,0.028269,-0.043606,-0.027348,-0.087391,-0.064657,-0.034713,0.040223,-0.003464,0.032268,0.052451,0.072979,0.030596,0.015106,0.017315,-0.012556,-0.053081,-0.174285,-0.026051,-0.041724,0.059307,0.006559,-0.024423,0.046452,0.040745,-0.016699,-0.022384,-0.031077,0.061426,-0.055983,-0.002670,0.071241,0.061457,0.034919,0.159636,-0.041638,-0.042491,0.061908,-0.055848,-0.050652,-0.137695,-0.017942,-0.013253,-0.021574,0.046709,-0.037924,0.027716,-0.091636,-0.100326,0.125960,0.062918,0.008679,-0.021806,0.049372,-0.016022,-0.013704,-0.079147,-0.078389,0.014259,0.019653,0.010724,0.090343,0.058944,-0.004387,-0.094802,0.038482,-0.114109,-0.009443,-0.056140,0.014718,-0.018203,0.039768,0.061448,0.042761,0.018797,-0.104679,0.040625,0.131914,0.026382,-0.213645,-0.034618
日本語ベーシック４（演習）【１４】,0.010874,0.040466,0.073122,-0.040595,-0.008885,-0.014643,-0.042006,-0.012721,0.104681,-0.034632,-0.140353,0.041806,-0.038149,-0.102945,-0.049079,-0.008407,-0.003774,-0.023744,-0.018215,0.024260,-0.028143,0.089333,-0.060598,0.027689,0.022397,-0.052128,-0.010626,0.029488,0.037410,-0.091361,0.051570,0.027344,-0.042940,-0.030929,-0.046677,-0.041725,-0.041915,-0.006795,0.112804,0.003966,-0.007097,-0.126715,0.043303,0.027711,-0.022443,-0.033347,-0.068170,-0.125964,0.038200,0.057018,0.070730,0.084936,0.000595,0.088934,-0.095091,0.017592,-0.040545,0.192598,-0.096082,0.005265,-0.007801,0.060520,0.066118,0.048546,-0.148575,0.140190,0.082534,0.012158,-0.059370,-0.114197,0.016563,-0.038815,-0.044441,0.000759,-0.123330,0.056677,0.000608,-0.020510,0.049637,-0.000251,-0.016612,0.084957,-0.097132,-0.035462,-0.059476,0.041414,-0.053858,0.027906,-0.015626,-0.172953,-0.006021,0.070277,0.047881,-0.086209,0.012849,-0.082344,-0.079116,0.011299,0.120761,-0.024466,-0.069452,-0.006616,0.056613,-0.049132,0.053266,0.036226,0.079821,0.004653,-0.092212,0.016760,-0.027990,-0.016236,0.124921,0.089544,-0.108956,0.000216,0.011686,0.063248,-0.117256,-0.048439,0.045821,-0.058249,-0.016480,-0.120294,-0.064453,-0.037285,0.034281,-0.002239,0.055931,0.046839,0.094711,0.024481,0.024728,0.014343,-0.026369,-0.036188,-0.191117,-0.039117,-0.040913,0.070607,0.012525,-0.026927,0.016696,0.023354,-0.009944,-0.034673,-0.062602,0.079692,-0.033612,0.002167,0.090738,0.042034,0.052021,0.191441,-0.037627,-0.051943,0.058255,-0.052589,-0.068046,-0.131371,-0.014396,-0.009268,-0.022869,0.034410,-0.031128,0.038845,-0.101542,-0.095465,0.133209,0.062836,-0.007431,-0.023833,0.029737,0.009702,-0.009585,-0.038242,-0.104808,0.020878,0.016513,0.019693,0.088078,0.063853,-0.028661,-0.085764,0.062337,-0.128883,-0.027979,-0.073591,0.010486,-0.037860,0.032664,0.082590,0.077723,0.038805,-0.088852,0.033762,0.142814,0.018791,-0.206327,-0.018878
ロシア語ベーシック１A【１４】,0.001055,0.016147,0.145823,0.058585,-0.073233,0.010927,0.041485,0.035529,0.090570,0.058862,-0.118873,0.027467,0.088786,-0.048411,-0.089335,-0.018472,0.011501,-0.070985,-0.000174,0.050165,0.013297,0.126001,0.078291,0.039548,0.026006,-0.036589,0.011344,0.042821,0.095134,-0.178528,0.129910,-0.011842,-0.000848,-0.035328,0.017206,0.030044,-0.083397,0.037683,0.173891,0.005544,0.051007,-0.152266,0.065637,0.022356,0.106693,-0.012849,-0.033282,-0.073346,0.010319,0.069170,0.083933,0.204818,-0.079100,0.073225,-0.093503,0.010518,-0.003193,0.136345,-0.111787,0.066440,0.011922,-0.013441,0.089128,0.019903,-0.085644,0.115287,0.068896,0.008474,-0.099338,-0.152109,0.024582,0.007800,0.029636,-0.002604,-0.082973,-0.007777,0.040366,-0.139005,-0.035337,-0.080548,-0.023852,0.075029,-0.050591,-0.003146,-0.076056,0.203858,-0.038533,0.110185,0.012007,-0.114541,0.067074,0.041292,0.014937,-0.079407,-0.084765,-0.101511,-0.200167,0.114132,0.153406,0.018150,-0.070084,-0.034687,0.028120,-0.093372,0.020888,0.072917,0.032908,-0.102087,-0.159754,-0.044762,0.086776,-0.009833,0.148038,0.081982,-0.185123,-0.053217,-0.019537,0.024212,-0.117495,0.007929,0.096205,-0.000765,0.023653,-0.187870,-0.023917,0.045559,0.002506,0.028859,0.010364,0.071085,0.164766,0.006005,0.123732,-0.011040,0.005218,-0.044705,-0.152905,-0.039578,-0.070571,0.047486,0.083012,0.005717,0.010715,0.033601,-0.004463,-0.086927,0.021316,-0.001214,0.008440,0.022169,0.144862,-0.014769,0.074510,0.207449,0.023655,-0.108064,0.145121,-0.053843,-0.058288,-0.055048,0.074368,-0.025092,-0.008566,-0.042758,0.044963,0.007091,-0.010218,-0.157842,0.061496,0.113355,-0.030661,-0.037009,0.053484,0.036881,0.092589,-0.129473,-0.027318,0.025806,-0.033629,0.015067,0.024455,0.009618,-0.084223,-0.040219,-0.000375,-0.066466,0.034511,-0.090918,-0.044174,0.011566,-0.060063,0.131380,0.098427,-0.033412,-0.069258,-0.074995,0.017785,0.066476,-0.003560,-0.020813
ロシア語ベーシック２【１４】,-0.023159,0.026982,0.085227,-0.000256,-0.059353,0.008785,0.016844,0.034869,0.059922,0.052879,-0.084389,0.012758,0.071445,-0.030890,-0.055211,0.001519,0.025490,-0.055296,0.004051,0.033679,-0.001476,0.089955,0.053980,0.017050,0.022933,-0.048842,0.002963,0.052129,0.042899,-0.124879,0.090158,-0.020761,-0.007327,-0.032641,0.021244,0.018212,-0.068107,0.000830,0.129649,0.018665,0.062322,-0.116759,0.050583,0.018174,0.058793,-0.022614,-0.038265,-0.062083,0.025916,0.061500,0.081269,0.130759,-0.064130,0.075498,-0.069175,0.010539,-0.003848,0.118894,-0.089186,0.042015,0.019722,-0.008349,0.077140,0.029026,-0.063898,0.072145,0.067258,0.007677,-0.099541,-0.106232,-0.011001,0.001259,0.012799,0.020588,-0.075904,-0.014918,0.018496,-0.093598,-0.013563,-0.064729,-0.019903,0.056268,-0.045771,-0.006377,-0.042182,0.161828,-0.048213,0.083848,0.007045,-0.103779,0.014959,0.051609,0.000377,-0.054346,-0.063909,-0.070908,-0.136815,0.092168,0.112200,-0.004315,-0.057153,-0.015197,0.021391,-0.063009,0.035600,0.065699,0.023313,-0.055315,-0.121637,-0.013276,0.060627,-0.001724,0.114594,0.099309,-0.124515,-0.071157,-0.022043,0.024106,-0.104368,-0.013931,0.054425,-0.005871,0.008283,-0.121248,-0.007909,0.006812,0.003149,0.009912,-0.001352,0.065099,0.128751,0.010296,0.079572,0.000464,-0.001843,-0.063629,-0.117723,-0.046762,-0.032989,0.034339,0.043619,-0.010153,0.040222,0.038664,-0.035331,-0.042939,0.017050,0.031441,0.010499,0.027979,0.104679,0.004345,0.051893,0.151320,0.011886,-0.068604,0.085164,-0.056871,-0.041210,-0.074483,0.028701,-0.007370,-0.014940,0.000912,0.011444,0.017986,-0.028421,-0.115434,0.057559,0.081208,-0.004682,-0.022407,0.031782,0.007613,0.040730,-0.087813,-0.024021,0.037408,0.009552,0.028232,0.031900,-0.007907,-0.061312,-0.035736,0.021811,-0.079089,0.000494,-0.062028,-0.024728,-0.001233,-0.009180,0.080123,0.075643,-0.029004,-0.071328,-0.044215,0.057244,0.054855,-0.035765,-0.041134
イタリア語ベーシック１A【１４】,0.134088,0.022985,0.220870,0.090466,-0.020701,0.089206,0.023486,0.047674,0.146613,-0.019123,-0.115413,0.082922,0.068238,-0.150797,-0.125988,-0.095576,-0.056466,-0.079723,0.013026,0.058671,0.119040,0.144042,0.075524,0.024657,0.073664,-0.036989,-0.071069,0.021176,0.096948,-0.188991,0.146926,0.078075,-0.015386,-0.137655,0.025483,0.094350,-0.099585,0.037809,0.214826,-0.013173,0.019823,-0.131212,0.043548,0.079462,0.158462,0.071104,-0.049888,-0.125141,-0.023799,0.018884,0.064176,0.213964,-0.100615,0.050437,-0.065928,0.008667,-0.015746,0.137366,-0.143017,0.027153,-0.079417,0.009429,0.105580,0.121543,-0.107579,0.174415,0.133736,0.009169,-0.073218,-0.188666,0.035934,-0.008821,0.065230,0.039852,-0.183267,0.070125,0.024620,-0.186573,-0.082028,-0.020342,0.017995,0.127531,-0.058277,0.016075,-0.054330,0.224010,-0.055166,0.093180,-0.047483,-0.122866,0.137100,0.013236,0.035469,-0.063248,-0.068797,-0.117301,-0.228092,0.207265,0.154926,0.022961,-0.089264,-0.019799,0.002426,-0.165216,0.114697,0.013163,0.177779,-0.087168,-0.159596,-0.115025,0.082838,0.035612,0.228235,0.027001,-0.284714,-0.055324,-0.042515,0.030887,-0.106641,0.067405,0.142738,0.000925,-0.019704,-0.189525,-0.030638,0.115067,-0.041545,0.063797,0.001966,0.085419,0.159519,0.003627,0.234615,-0.000827,0.057813,-0.028557,-0.218690,0.004171,-0.126736,0.055487,0.165313,0.007579,-0.096902,0.066716,0.018534,-0.101376,0.025813,-0.027143,-0.072297,-0.007120,0.138245,0.054185,0.108104,0.298278,0.044529,-0.167377,0.143069,-0.137310,-0.041049,-0.103391,0.103193,-0.106059,-0.071472,-0.048727,0.070743,-0.026993,-0.037172,-0.204708,0.141883,0.141365,-0.113823,-0.100336,0.146349,0.007741,0.168663,-0.176570,-0.052946,0.001946,-0.104468,0.014881,0.068259,0.051336,-0.076194,-0.063793,-0.012475,-0.047160,0.022109,-0.155383,-0.027612,0.065979,-0.088796,0.155433,0.038906,0.033825,-0.100348,0.043604,0.115845,0.120440,-0.070288,0.016214
イタリア語ベーシック２【１４】,0.107009,0.075866,0.208934,0.057547,-0.059188,0.095680,0.039788,0.071610,0.128760,-0.006720,-0.105334,0.088099,0.097068,-0.131892,-0.140526,-0.047325,-0.023205,-0.098070,0.021513,0.071337,0.138580,0.124351,0.073613,0.003307,0.078598,-0.047258,-0.075957,0.030087,0.104363,-0.189774,0.184211,0.045807,0.004452,-0.153897,0.017065,0.086118,-0.130236,0.030435,0.211796,0.027102,0.071785,-0.166859,0.032648,0.050380,0.164412,0.048777,-0.072387,-0.111039,-0.060618,0.044584,0.103946,0.215550,-0.143633,0.032559,-0.036156,0.033122,-0.007562,0.156340,-0.141416,0.007876,-0.063007,0.025361,0.159173,0.144632,-0.094487,0.183187,0.186792,-0.005884,-0.125207,-0.161003,-0.008160,-0.036968,0.062639,0.060700,-0.213582,0.056088,0.024427,-0.206373,-0.106133,-0.043399,0.018766,0.131298,-0.055692,0.039219,-0.000093,0.287094,-0.089135,0.131249,-0.057249,-0.115481,0.111496,0.027468,0.014669,-0.025142,-0.088891,-0.189515,-0.276619,0.261288,0.179387,-0.000128,-0.069391,-0.066663,0.018408,-0.155892,0.152369,0.044992,0.188641,-0.110676,-0.121528,-0.119069,0.121379,0.041254,0.224234,0.063511,-0.275392,-0.108421,-0.073367,0.017736,-0.123135,0.085216,0.143582,-0.001149,-0.012430,-0.186377,0.017579,0.106343,-0.060946,0.066228,-0.034178,0.097649,0.185995,-0.005200,0.243454,-0.007658,0.094157,-0.064479,-0.219603,-0.014385,-0.122338,0.040238,0.160507,-0.008402,-0.118712,0.054572,-0.006996,-0.099543,0.053665,-0.008150,-0.100944,-0.002857,0.124283,0.032373,0.117034,0.306050,0.045282,-0.146253,0.123766,-0.163694,-0.010006,-0.119435,0.123046,-0.110046,-0.045031,0.009073,0.046853,0.016745,-0.029092,-0.212704,0.117817,0.157699,-0.091590,-0.102369,0.180329,-0.036079,0.170319,-0.188462,-0.039615,0.001146,-0.076028,0.002112,0.051469,0.029239,-0.084356,-0.028426,-0.023408,-0.051800,0.025523,-0.135455,-0.011308,0.085610,-0.090493,0.147289,0.047033,0.020724,-0.155133,0.033873,0.159294,0.139276,-0.134630,0.001075
ドイツ語インテンシブ１GA【１４】,0.097400,-0.046605,0.197290,0.154539,-0.000849,0.023887,0.008476,0.035561,0.113565,-0.014280,-0.124597,0.051873,0.040313,-0.084060,-0.090427,-0.068380,0.016932,-0.086915,0.008726,0.027762,0.040969,0.115409,0.078925,0.043612,0.044887,-0.021535,-0.076722,-0.008553,0.136976,-0.205711,0.125593,0.041889,0.018019,-0.038938,0.032232,0.012069,-0.075940,0.013003,0.221728,-0.049499,-0.045082,-0.154037,0.016757,0.019351,0.141654,0.049375,-0.041786,-0.119557,0.023125,0.037095,0.086849,0.221159,-0.132978,0.033470,-0.073637,-0.023159,-0.025054,0.123083,-0.122378,0.040572,-0.060398,0.051334,0.080915,0.026915,-0.067824,0.139017,0.066983,0.077351,-0.027495,-0.168023,0.093449,0.018878,0.024855,0.008169,-0.095441,0.040758,0.049833,-0.143044,-0.029696,-0.059237,0.009394,0.154596,-0.056996,-0.035440,-0.144958,0.182476,-0.041902,0.107128,-0.067270,-0.078806,0.159196,-0.042439,-0.000124,-0.119469,-0.103929,-0.113038,-0.185339,0.183748,0.141085,0.055684,-0.042857,0.041094,0.034483,-0.142202,0.026149,-0.013773,0.082579,-0.115652,-0.186931,0.020134,0.041308,0.038463,0.240940,0.031555,-0.230313,-0.031918,-0.006351,0.038970,-0.078709,0.000692,0.150625,-0.004748,-0.012162,-0.225066,-0.024693,0.106671,-0.048394,0.071692,0.040848,0.050224,0.170715,0.018519,0.191541,0.029225,0.044055,0.005020,-0.205874,-0.024973,-0.103419,0.044964,0.189863,0.003142,-0.104232,0.025885,0.019791,-0.087161,-0.008982,-0.011420,-0.060375,0.057732,0.120145,0.048730,0.094008,0.294009,0.068555,-0.120832,0.134911,-0.112373,-0.086479,-0.008710,0.162039,-0.081318,-0.041041,-0.119727,0.056680,-0.081597,-0.033201,-0.189305,0.044289,0.131352,-0.103867,-0.071403,0.057150,0.094333,0.179072,-0.093639,-0.058883,-0.009616,-0.133685,0.014409,0.053103,0.070126,-0.123730,-0.020852,0.037145,-0.075599,-0.045093,-0.138251,-0.036891,0.027712,-0.105361,0.199577,0.126945,0.060013,0.034233,-0.049277,-0.007569,0.042566,0.019973,0.065793
ドイツ語インテンシブ２GA【１４】,0.093497,-0.002300,0.196398,0.072970,0.000448,0.048315,0.022599,0.051018,0.072578,-0.031962,-0.073376,0.067168,0.052590,-0.050614,-0.091957,-0.053109,0.012167,-0.060711,0.027505,0.039312,0.064034,0.078145,0.056529,0.009372,0.042759,-0.022737,-0.038012,0.008655,0.096557,-0.128046,0.122548,0.023428,0.013752,-0.054690,-0.003873,0.034752,-0.074983,0.004339,0.156225,0.005894,0.002775,-0.137257,-0.013169,0.003328,0.111199,0.039619,-0.092151,-0.085388,-0.032595,0.018895,0.079114,0.160153,-0.125086,0.035494,-0.019730,-0.001147,-0.002735,0.124815,-0.096506,-0.004774,-0.043197,0.046047,0.082417,0.073742,-0.054085,0.134590,0.088791,0.021016,-0.062012,-0.096420,0.023058,-0.015698,0.031044,0.029876,-0.100206,0.026168,0.025144,-0.139116,-0.044482,-0.040939,0.031701,0.119668,-0.054559,-0.003415,-0.044318,0.166100,-0.089186,0.090254,-0.041213,-0.058376,0.095227,-0.012874,-0.011673,-0.066674,-0.058556,-0.115598,-0.194117,0.186302,0.135479,0.029475,-0.028241,-0.000852,0.009761,-0.119282,0.069492,0.010352,0.105710,-0.079256,-0.130645,-0.042634,0.055028,0.020747,0.156864,0.031100,-0.159911,-0.055449,-0.035671,0.032645,-0.070387,0.014809,0.106272,-0.004170,-0.012776,-0.171998,-0.008029,0.100706,-0.041097,0.068485,-0.007045,0.066322,0.128045,0.009214,0.185424,0.023402,0.078933,-0.024503,-0.151060,-0.020191,-0.070815,0.029809,0.142206,-0.013101,-0.078641,0.022906,0.024691,-0.041012,0.031043,-0.004640,-0.073635,0.048095,0.088468,0.048222,0.065812,0.231062,0.056394,-0.112849,0.095532,-0.133973,-0.038673,-0.058549,0.107878,-0.095078,-0.023147,-0.048528,0.041450,-0.060136,-0.021593,-0.142120,0.020748,0.090677,-0.082775,-0.056079,0.087953,0.031297,0.144441,-0.079675,-0.021520,0.021026,-0.083236,0.002739,0.046838,0.053157,-0.084499,-0.013408,0.012767,-0.040199,-0.022099,-0.093342,0.001141,0.036981,-0.063765,0.143904,0.061772,0.033016,-0.055107,-0.008722,0.104668,0.074095,-0.089334,0.050986
ドイツ語インテンシブ３GA【１４】,0.100577,0.008712,0.197785,0.066060,0.005753,0.050233,0.026954,0.051708,0.070914,-0.034131,-0.065047,0.075340,0.053720,-0.042633,-0.095634,-0.047638,0.014450,-0.060364,0.030929,0.037836,0.063927,0.078290,0.054175,-0.000142,0.039947,-0.024927,-0.031317,0.005791,0.089496,-0.121563,0.131853,0.024009,0.014654,-0.065801,0.001376,0.051206,-0.070290,0.003329,0.154102,0.015387,0.016854,-0.144637,-0.020235,-0.003249,0.107714,0.036242,-0.095331,-0.080276,-0.042184,0.020521,0.084368,0.151988,-0.123222,0.042830,-0.001716,-0.000313,-0.002144,0.125164,-0.085504,-0.017568,-0.042703,0.041528,0.077566,0.077664,-0.044323,0.128759,0.086605,0.005660,-0.071304,-0.085853,0.009410,-0.015055,0.028819,0.035155,-0.102008,0.031228,0.025090,-0.135922,-0.049902,-0.043212,0.037154,0.110046,-0.056656,0.006092,-0.027274,0.162392,-0.097360,0.088239,-0.032727,-0.057073,0.082328,-0.008215,-0.019208,-0.059180,-0.052113,-0.123740,-0.206414,0.192273,0.134613,0.024480,-0.025600,-0.002778,-0.001140,-0.122889,0.082109,0.010655,0.113283,-0.079006,-0.125216,-0.045994,0.063319,0.015948,0.145888,0.037617,-0.160694,-0.064522,-0.049318,0.032612,-0.076507,0.018093,0.107424,-0.001134,-0.010912,-0.169050,-0.005534,0.105215,-0.038720,0.069825,-0.015268,0.071461,0.124189,0.011400,0.194280,0.023848,0.087617,-0.033553,-0.147953,-0.016086,-0.068696,0.026459,0.139651,-0.015805,-0.077781,0.025924,0.025947,-0.034253,0.036030,-0.002239,-0.082600,0.047405,0.084616,0.052088,0.061288,0.228567,0.062089,-0.114398,0.092930,-0.138636,-0.030874,-0.068034,0.101131,-0.091043,-0.017466,-0.035068,0.040647,-0.051524,-0.026995,-0.140324,0.015370,0.094032,-0.086850,-0.059120,0.096112,0.020796,0.146131,-0.092943,-0.018625,0.027428,-0.084722,-0.002296,0.055084,0.049515,-0.085557,-0.015072,0.006667,-0.034967,-0.018961,-0.086228,0.005418,0.044468,-0.055838,0.137339,0.049867,0.034342,-0.065151,0.000956,0.124386,0.077718,-0.104571,0.051579
フランス語インテンシブ１FA【１４】,-0.005592,-0.027749,0.146069,-0.051502,-0.085866,0.089062,0.061923,0.062684,0.112031,0.045300,-0.267637,-0.084050,0.117058,-0.251902,-0.073567,-0.074590,-0.054349,-0.041328,-0.016501,0.088306,0.020947,0.188514,-0.031421,0.082701,0.027501,-0.073590,0.045217,0.139126,0.152376,-0.132003,-0.038955,0.028931,-0.052933,-0.010265,-0.135951,-0.095549,-0.157253,0.022087,0.135595,0.007955,0.054900,-0.095404,0.137658,0.097106,0.069270,-0.033605,-0.054387,-0.122434,0.006047,0.029669,0.015316,0.311585,-0.032449,0.093563,-0.215269,0.043191,-0.017052,0.313860,-0.231660,0.146804,0.065281,0.067191,0.119806,0.064634,-0.215566,0.285848,0.251684,0.028807,-0.157626,-0.225248,0.011286,-0.096945,0.056164,0.013151,-0.156520,-0.005802,0.097464,-0.197073,0.039383,-0.025127,-0.064796,0.115017,-0.139336,0.022782,-0.057192,0.252677,0.032175,0.115270,0.003405,-0.152843,0.067696,0.103042,0.199188,-0.032804,-0.064030,-0.115334,-0.248702,0.071789,0.213959,0.016488,-0.067540,-0.049651,0.028399,-0.089184,-0.041572,0.142201,0.084342,0.013663,-0.105621,-0.111099,0.001640,-0.051505,0.144540,0.044097,-0.149759,0.073327,0.048866,0.044872,-0.086637,-0.040884,0.027368,-0.081235,0.067461,-0.252023,-0.061658,-0.059302,0.094992,-0.035442,0.086625,0.078309,0.197943,-0.009697,0.015520,-0.072486,-0.017686,-0.064409,-0.210949,-0.063998,-0.032959,0.074698,-0.024008,0.023609,0.076513,-0.020796,0.016539,-0.146954,0.003143,-0.040017,0.067567,0.021684,0.173512,-0.061839,0.037930,0.293164,-0.070664,-0.115253,0.134104,-0.060840,-0.069486,-0.231181,0.110546,-0.038779,-0.058769,0.030687,-0.042922,-0.033348,-0.045034,-0.221053,0.166658,0.047228,0.015524,0.045826,0.092971,0.051759,-0.037195,-0.045935,-0.103500,0.035875,0.083575,-0.011495,0.018554,0.072502,0.031853,-0.140322,0.019866,-0.091999,0.062484,-0.168107,-0.031070,-0.026256,-0.011337,0.147851,0.111344,-0.066966,-0.152364,-0.018982,0.004002,0.002621,-0.172411,-0.102761
フランス語インテンシブ２FA【１４】,-0.097084,-0.244259,0.273647,-0.128233,-0.126392,0.105284,0.037782,0.019826,0.198263,0.094883,-0.600249,-0.245272,0.140073,-0.448369,-0.004969,-0.190668,-0.043677,-0.037520,-0.100900,0.143578,-0.125150,0.358574,-0.107409,0.232498,0.055712,-0.036797,0.057462,0.223181,0.230881,-0.194740,-0.212170,0.029780,-0.135421,0.202274,-0.271258,-0.423960,-0.222518,0.013617,0.246475,-0.070219,-0.089522,-0.131165,0.324505,0.244854,0.044694,0.017763,-0.082829,-0.294153,0.133202,-0.000492,-0.064342,0.597533,0.002087,0.200850,-0.594742,0.009360,-0.041166,0.634731,-0.568715,0.445353,0.191117,0.127454,0.162250,0.098164,-0.553316,0.585317,0.417269,0.228802,-0.171516,-0.569475,0.231657,-0.118651,0.011462,-0.118993,-0.184900,-0.125425,0.161344,-0.249013,0.192482,0.022235,-0.171217,0.355672,-0.159920,-0.050051,-0.405831,0.316751,0.118121,0.171409,-0.034713,-0.263013,0.104842,0.130898,0.454831,-0.247748,-0.124167,-0.023987,-0.213078,-0.071232,0.416366,0.143276,-0.178280,0.030456,0.160223,-0.008426,-0.318515,0.274304,0.040776,0.166253,-0.325643,-0.071766,-0.115608,-0.010294,0.290921,0.062779,-0.164911,0.206008,0.304151,0.169325,-0.105798,-0.209004,0.032448,-0.176175,0.127128,-0.476666,-0.145452,-0.151545,0.238493,-0.080698,0.259158,0.011535,0.276387,-0.061694,-0.227261,-0.198831,-0.176589,0.026712,-0.333773,-0.216475,0.004938,0.170715,-0.058501,0.071428,0.302741,-0.061938,0.037660,-0.161753,-0.189898,-0.047448,0.263964,0.160593,0.308434,-0.106356,0.067357,0.441342,-0.172345,-0.104960,0.278339,0.034728,-0.169266,-0.313040,0.135298,-0.032611,-0.147898,-0.071176,-0.107701,-0.220180,-0.116923,-0.294431,0.307250,-0.064444,0.072256,0.222633,-0.044447,0.281576,-0.202860,0.178172,-0.195441,0.062509,0.172358,0.061781,-0.001065,0.185301,0.055334,-0.284339,0.153672,-0.261004,0.069023,-0.313637,-0.119157,-0.271539,-0.025871,0.269548,0.331534,-0.097858,-0.109361,-0.192923,-0.129230,-0.072451,-0.209183,-0.169438
フランス語インテンシブ３FA【１４】,-0.138042,0.009163,0.108645,-0.083664,-0.250215,0.047319,0.056561,0.101517,0.070662,0.206042,-0.279364,-0.078099,0.175943,-0.198440,-0.094583,-0.065970,-0.021121,-0.100612,-0.040883,0.102786,0.037008,0.131805,0.049514,0.095261,-0.002381,-0.079209,0.101755,0.249359,0.151128,-0.130521,0.030316,-0.010457,-0.021985,0.017433,-0.135370,-0.144779,-0.237101,0.054557,0.095758,0.021732,0.063997,-0.102906,0.184796,0.072307,0.079801,-0.108901,-0.031990,-0.022874,0.044687,0.055260,0.005548,0.364746,-0.082763,0.103430,-0.286284,0.088216,0.021791,0.314604,-0.302434,0.194495,0.136064,0.012381,0.173895,0.024825,-0.234760,0.280934,0.235118,0.070197,-0.186569,-0.213290,0.023963,-0.130887,0.105483,0.017189,-0.106879,-0.119305,0.060223,-0.237549,0.008220,-0.077250,-0.135604,0.076406,-0.103492,-0.032824,-0.051911,0.360447,0.016139,0.124616,0.009104,-0.127980,0.053889,0.128400,0.160436,0.001368,-0.163942,-0.107202,-0.220470,0.050533,0.194122,0.028765,-0.096232,-0.114605,0.117859,-0.056230,-0.048921,0.212108,-0.013116,-0.027597,-0.090018,-0.163806,0.068130,-0.014011,0.132952,0.025458,-0.075548,0.010806,0.077836,-0.001493,-0.116017,-0.063490,-0.016821,-0.048591,0.098593,-0.217231,-0.078896,-0.107552,0.073285,-0.080278,0.072558,0.048007,0.216535,-0.013293,-0.055071,-0.115513,-0.030018,-0.060877,-0.183934,-0.095085,-0.058255,0.065405,-0.087732,0.001031,0.148166,-0.071898,-0.067638,-0.122491,0.060209,-0.029048,0.142985,0.015470,0.190920,-0.126723,0.046117,0.176589,-0.144573,-0.110776,0.157699,-0.042500,-0.069187,-0.150992,0.050069,-0.085459,0.000229,0.012174,0.012323,0.000801,0.049950,-0.198127,0.162610,0.094997,0.135936,0.010970,0.124979,0.035559,-0.046931,-0.108238,-0.067303,0.003593,0.214961,0.014961,-0.069366,0.044145,0.056383,-0.091985,0.020289,-0.128187,0.069382,-0.077510,-0.053817,-0.028785,-0.072597,0.087008,0.160454,-0.159774,-0.200630,-0.193776,-0.048930,-0.006719,-0.114805,-0.112718
フランス語インテンシブ４FA【１４】,-0.157285,0.014530,0.115915,-0.129007,-0.264931,0.074405,0.072406,0.127467,0.093103,0.211573,-0.340053,-0.114310,0.213004,-0.266748,-0.110750,-0.072371,-0.017475,-0.090186,-0.035746,0.097959,0.030123,0.173439,0.019901,0.097116,0.009372,-0.100358,0.124512,0.275379,0.178515,-0.167486,0.010265,-0.009351,-0.032914,0.028613,-0.165166,-0.151007,-0.271961,0.049751,0.141355,0.032871,0.095452,-0.145097,0.237597,0.108009,0.064954,-0.097078,-0.047737,-0.071509,0.038779,0.087389,0.013245,0.429364,-0.089952,0.137398,-0.318129,0.102196,0.024101,0.401064,-0.355585,0.233953,0.144930,0.005006,0.205446,0.049696,-0.297052,0.333497,0.305048,0.066074,-0.251528,-0.254819,0.018921,-0.132196,0.132747,0.030392,-0.145523,-0.114700,0.085255,-0.279432,0.018218,-0.096647,-0.142915,0.102347,-0.132706,0.002155,-0.060953,0.441635,0.038817,0.162185,0.009185,-0.159084,0.049183,0.158422,0.215377,0.007318,-0.177070,-0.139708,-0.276135,0.063343,0.254868,0.033529,-0.108238,-0.122572,0.120683,-0.038550,-0.052801,0.274727,0.003748,-0.018356,-0.134090,-0.180854,0.090010,-0.044761,0.153969,0.082139,-0.106511,0.006292,0.088412,0.016998,-0.140091,-0.071155,-0.009366,-0.067247,0.126787,-0.276081,-0.075274,-0.127417,0.099887,-0.083465,0.083319,0.071812,0.274623,-0.026031,-0.042253,-0.141032,-0.033969,-0.086754,-0.219600,-0.122697,-0.052534,0.061084,-0.103302,0.007272,0.166641,-0.062044,-0.067425,-0.160674,0.067432,-0.024968,0.165943,0.014725,0.232520,-0.163416,0.054309,0.231442,-0.126225,-0.121487,0.185964,-0.050559,-0.072985,-0.219056,0.076917,-0.063271,-0.016732,0.060434,-0.017798,0.014768,0.035544,-0.247060,0.192782,0.095323,0.147222,0.044475,0.133420,0.043261,-0.084852,-0.123369,-0.066336,0.028035,0.222994,0.004252,-0.066239,0.049479,0.045841,-0.122834,0.012472,-0.159530,0.099824,-0.116767,-0.060108,-0.022303,-0.040800,0.122734,0.188761,-0.192738,-0.257903,-0.187889,-0.011152,0.013392,-0.193654,-0.161651
中国語インテンシブ１C1【１４】,0.051876,-0.126155,0.327644,0.122187,-0.003901,0.029739,-0.027813,0.061538,0.044863,-0.034360,-0.117704,-0.012157,0.156200,-0.026360,-0.143862,-0.313804,-0.095421,-0.080643,0.068943,0.111755,0.152896,0.143951,0.102285,0.176075,0.177560,0.135144,-0.069992,0.073067,0.175924,-0.219104,0.211280,-0.097959,-0.028709,0.153263,-0.109370,-0.132622,-0.142799,0.077540,0.233718,-0.115005,-0.222522,-0.088528,0.008711,0.025484,0.175697,0.058163,-0.173513,-0.206938,0.080732,0.003454,-0.084453,0.284254,-0.209614,-0.082372,-0.283332,-0.048651,0.028544,0.050767,-0.281846,0.191308,-0.181496,-0.069519,0.163503,0.141010,-0.238423,0.224628,0.045544,0.180075,-0.000139,-0.303735,0.300477,0.130152,0.197933,-0.159025,-0.179967,-0.107911,-0.021664,-0.254642,-0.040066,-0.043129,0.106123,0.269925,0.055840,-0.164268,-0.240266,0.187702,-0.122000,0.113418,-0.080198,-0.136501,0.327562,-0.091868,0.001221,-0.361193,-0.203702,0.105216,-0.111047,0.131393,0.265385,0.091300,-0.206519,-0.010501,0.163729,-0.042980,-0.079463,0.072202,0.058650,-0.126823,-0.309529,-0.211036,0.064611,0.076288,0.395489,0.093996,-0.219019,-0.002547,0.094315,0.192268,-0.097069,0.070432,0.189783,0.057059,-0.088802,-0.230656,-0.082222,0.161134,-0.055229,0.205799,0.111851,0.138743,0.150601,-0.089778,0.092434,0.076782,0.038803,0.170825,-0.222324,-0.157960,-0.127154,0.159988,0.309010,0.006616,-0.019803,0.194180,0.038761,-0.081313,-0.089756,0.021642,-0.010885,0.071852,0.317393,0.104031,0.196444,0.426963,-0.090132,-0.244452,0.273284,-0.137995,-0.149746,0.011248,0.106020,-0.201644,-0.197495,-0.308542,0.227990,-0.099089,0.038171,-0.288077,0.069110,0.086611,-0.098946,-0.126332,0.022394,0.216276,0.108708,0.042070,-0.051696,-0.057022,-0.105631,0.115227,-0.003635,0.103526,-0.097165,-0.199268,0.018222,-0.160282,0.001489,-0.297075,-0.117284,-0.121233,-0.247794,0.271174,0.111606,0.087170,-0.001339,-0.094005,-0.008104,0.228659,0.164660,0.075198
中国語インテンシブ２C1【１４】,0.017392,0.036448,0.215729,0.078200,-0.124469,0.018990,0.008875,0.066030,0.023065,-0.054784,0.014454,0.019352,0.042749,-0.099474,-0.049411,-0.093299,-0.011014,-0.090102,-0.008974,0.067530,0.206158,-0.024063,0.032188,0.119815,0.178209,0.068640,-0.251783,0.028430,0.130252,-0.183678,0.138909,-0.065996,-0.034037,-0.054882,-0.055694,-0.074525,-0.085547,0.035762,0.286979,-0.010245,-0.079625,-0.113125,0.002333,0.145855,0.231953,0.131980,-0.109711,-0.148077,-0.033231,0.060815,0.024630,0.092192,-0.204672,-0.229166,-0.072206,-0.014118,0.014708,-0.047332,-0.168172,0.063492,-0.129265,0.025161,0.255753,0.233356,-0.140759,0.137183,0.177133,0.147880,0.012755,-0.158514,0.126209,-0.025411,0.100454,0.044831,-0.200401,-0.006985,-0.049995,-0.129897,-0.132834,0.015443,0.010856,0.190033,0.053146,0.062468,-0.088535,0.234168,-0.049196,0.154916,-0.119668,-0.062679,0.116761,-0.054592,-0.081021,-0.076320,-0.179052,-0.109469,-0.097892,0.209075,0.143547,0.028035,-0.118121,-0.141788,0.103775,0.010138,0.067317,0.015786,0.183851,-0.090888,-0.156131,-0.085556,0.200345,0.137813,0.379490,0.102830,-0.283802,-0.099976,-0.029565,0.117457,-0.022092,0.146648,0.101262,-0.005492,-0.135795,-0.156437,0.041928,0.136326,-0.112853,0.130244,0.022151,0.005645,0.206566,-0.054906,0.114786,0.006352,0.060564,0.059431,-0.168392,-0.129130,-0.172542,0.019611,0.269673,-0.019319,-0.111791,0.085417,-0.121261,-0.104979,-0.042115,0.096642,-0.084182,0.040329,0.108392,0.093132,0.146882,0.262437,0.036835,-0.115637,0.086571,-0.146973,0.043662,0.037532,0.218456,-0.130697,-0.099804,-0.074085,0.070102,-0.032865,0.003261,-0.266987,0.117217,0.176987,-0.071342,-0.015153,0.068714,-0.002523,0.114244,0.024826,0.084307,-0.149603,-0.149913,0.108253,-0.013328,-0.050059,-0.094489,0.037911,0.083217,-0.116555,0.014952,-0.166107,-0.055476,-0.064985,-0.138224,0.280097,0.123613,0.059484,-0.224495,0.073596,0.260799,0.326906,-0.329885,0.081984
中国語インテンシブ３C1【１４】,0.015485,-0.002213,0.057392,-0.005130,-0.045413,0.019090,0.052340,0.064541,0.016588,0.031726,-0.052142,-0.002636,0.097560,-0.047134,-0.062857,-0.029566,0.007340,-0.034452,0.012628,0.009165,0.025074,0.063573,0.035412,-0.018690,0.014918,-0.021295,0.014651,0.008971,0.062378,-0.077509,0.077147,0.021068,0.008283,-0.007038,-0.016244,0.008744,-0.073769,0.025019,0.071205,0.018203,0.051847,-0.097767,0.048965,-0.014853,0.035106,-0.026548,-0.018650,-0.042093,-0.035179,0.061703,0.039744,0.110942,-0.099566,0.025317,-0.025875,0.016958,0.023301,0.106408,-0.051803,0.021149,-0.013126,-0.023316,0.050044,0.007536,-0.034336,0.066729,0.072033,-0.024522,-0.126070,-0.053264,-0.017311,-0.000669,0.052736,0.013404,-0.068029,-0.009112,0.055428,-0.111199,-0.012178,-0.054127,0.000815,0.041277,-0.029403,0.025337,0.004455,0.148036,-0.030737,0.087834,0.011162,-0.015906,0.049389,0.016099,0.005587,0.005351,-0.073572,-0.080668,-0.158623,0.105474,0.090515,0.020086,-0.028369,-0.028045,0.019023,-0.056004,0.030984,0.068249,0.050786,-0.058887,-0.058468,-0.062328,0.064862,-0.040709,0.048649,0.066150,-0.086439,-0.061873,-0.034219,0.021348,-0.091717,-0.026683,0.062488,0.004357,0.025852,-0.113846,0.004120,0.040365,-0.010978,0.043200,0.011595,0.038294,0.091839,0.005515,0.077048,-0.012959,0.028114,-0.026715,-0.064093,-0.030384,-0.036965,0.003917,0.041394,0.001977,-0.000406,0.010068,0.015281,-0.047833,0.044267,0.023972,-0.013470,0.002738,0.092298,-0.028077,0.012863,0.132775,-0.019945,-0.064120,0.070755,-0.059133,-0.015866,-0.098978,0.094166,-0.009422,-0.034542,-0.001551,0.000598,0.024028,-0.004041,-0.127538,0.008517,0.026924,-0.005387,-0.042075,0.072049,0.027174,0.035474,-0.080868,-0.012424,0.013954,-0.017681,-0.022619,0.015486,0.012102,-0.042706,-0.039813,-0.037382,-0.065383,0.044715,-0.036915,-0.009856,0.025532,-0.018365,0.053552,0.021129,-0.003032,-0.092481,0.003584,0.055162,0.046088,-0.083484,-0.021175
中国語インテンシブ４【１４】,0.050295,-0.057105,0.240567,0.106285,-0.028003,0.039367,-0.042651,0.063952,0.042528,-0.061873,-0.031300,0.012776,0.059516,-0.083166,-0.080704,-0.241531,-0.075054,-0.077817,0.020866,0.049884,0.200915,0.033422,0.083991,0.160679,0.168391,0.092222,-0.208612,0.041287,0.126052,-0.166150,0.139593,-0.042003,-0.069655,0.021923,-0.059361,-0.093411,-0.070363,0.042033,0.254629,-0.096420,-0.175370,-0.064119,-0.003003,0.147341,0.173684,0.127231,-0.110459,-0.204982,0.037008,0.012891,-0.046467,0.127293,-0.168474,-0.163060,-0.164843,-0.030744,0.031225,-0.047007,-0.214330,0.108274,-0.153194,-0.024853,0.193268,0.218332,-0.157563,0.116251,0.104667,0.185331,0.057077,-0.241733,0.223337,0.062114,0.147977,-0.035503,-0.138283,-0.066237,-0.050294,-0.183871,-0.071811,0.015021,0.039526,0.199859,0.050869,-0.053885,-0.157161,0.163954,-0.053703,0.097014,-0.128192,-0.088034,0.224974,-0.096241,-0.040699,-0.182539,-0.181947,0.045168,-0.067563,0.118724,0.146962,0.067561,-0.160003,-0.053968,0.126925,-0.035649,-0.008171,-0.017881,0.170222,-0.075677,-0.244682,-0.110868,0.109511,0.147818,0.391246,0.091857,-0.262469,-0.040928,0.045599,0.172012,-0.025887,0.099564,0.114371,0.006096,-0.147114,-0.183656,-0.017738,0.164615,-0.091903,0.156273,0.071189,0.045685,0.157649,-0.061079,0.124569,0.027768,0.039647,0.148514,-0.174384,-0.140512,-0.147157,0.086578,0.291504,-0.024306,-0.080462,0.122900,-0.051855,-0.059632,-0.075361,0.085207,-0.031462,0.059002,0.182293,0.104614,0.146580,0.306078,-0.012764,-0.176795,0.129251,-0.165705,-0.030193,0.032634,0.154236,-0.181414,-0.168049,-0.193944,0.162027,-0.087604,0.003655,-0.247443,0.111174,0.113512,-0.109450,-0.080712,0.037357,0.103246,0.115484,0.056726,0.031439,-0.114954,-0.146572,0.147052,0.010166,-0.003078,-0.113228,-0.073955,0.077013,-0.123965,-0.030924,-0.220284,-0.070853,-0.098101,-0.196948,0.271693,0.081041,0.109268,-0.112922,0.037601,0.190669,0.287680,-0.123853,0.113740
朝鮮語インテンシブ１KA【１４】,0.017497,-0.031522,0.062192,0.010033,0.002891,0.015275,0.007233,0.014981,0.035070,0.001344,-0.063661,0.000109,0.023984,-0.067791,-0.025903,-0.051439,-0.038658,-0.017648,-0.006595,0.001884,0.025283,0.044436,0.009813,0.035180,0.017581,-0.009858,-0.010283,0.016655,0.044192,-0.040645,0.015242,0.035731,-0.027039,-0.005604,-0.030829,-0.016413,-0.029677,0.020092,0.057631,-0.014681,-0.016813,-0.028789,0.043351,0.047461,0.029769,0.011980,0.001352,-0.050061,0.009769,0.002985,-0.003361,0.075080,-0.015333,0.025711,-0.061333,-0.001797,0.000481,0.064574,-0.069153,0.028064,-0.000914,0.000992,0.016753,0.026913,-0.063313,0.063771,0.038165,0.028405,-0.021262,-0.081185,0.041233,-0.013734,0.037048,-0.010223,-0.027096,0.006982,0.013634,-0.059654,0.006695,-0.003488,-0.005206,0.034964,-0.031130,0.005538,-0.032443,0.051653,0.018890,0.019950,-0.014227,-0.027424,0.054562,0.010250,0.045913,-0.018804,-0.025558,-0.008447,-0.064431,0.013434,0.056807,0.023566,-0.034696,-0.013241,0.009951,-0.036476,-0.017938,0.012857,0.043935,-0.000873,-0.058508,-0.037636,0.007026,0.004382,0.058221,0.004360,-0.068887,0.022149,0.020106,0.024086,-0.024635,-0.007784,0.021515,-0.006891,0.005192,-0.073734,-0.031792,0.016657,0.006787,0.022644,0.032858,0.020148,0.043900,-0.002552,0.029793,-0.008756,0.002088,0.011081,-0.059539,-0.001922,-0.028372,0.021147,0.016341,0.005423,0.002965,-0.001917,0.011267,-0.030357,-0.013320,-0.007582,0.011993,-0.003335,0.058881,-0.001791,0.008513,0.081858,-0.012681,-0.045517,0.044353,-0.029877,-0.020559,-0.040300,0.042318,-0.021038,-0.028285,-0.025055,0.025289,-0.028885,-0.010887,-0.065606,0.045780,0.026462,-0.012683,-0.005949,0.032353,0.042243,0.013024,-0.032941,-0.015511,-0.012119,-0.014656,0.009128,0.014866,0.024306,-0.011438,-0.038066,0.003885,-0.028445,0.018008,-0.049805,-0.013202,-0.006722,-0.020828,0.061888,0.015325,-0.003797,-0.043137,0.012814,0.023563,0.024704,-0.053614,0.012733
朝鮮語インテンシブ２KA【１４】,0.070802,0.046744,0.129920,0.032725,-0.044939,0.023061,0.045472,0.060028,0.053524,0.015776,-0.084707,0.041187,0.088674,-0.060516,-0.099669,-0.031435,-0.008265,-0.049340,0.013125,0.025767,0.054913,0.070425,0.044594,-0.006618,0.022308,-0.026597,0.021622,0.009204,0.089036,-0.127701,0.142014,0.048097,0.012607,-0.059265,-0.013937,0.043303,-0.078751,0.045806,0.104535,0.008576,0.041869,-0.140094,0.047063,-0.018552,0.081392,0.010255,-0.050939,-0.041305,-0.049368,0.058129,0.067117,0.160967,-0.109476,0.038156,-0.026595,0.024097,-0.001113,0.130119,-0.081883,-0.009450,-0.017038,-0.013091,0.085692,0.050327,-0.074784,0.108883,0.060049,-0.014519,-0.091587,-0.077544,0.011727,-0.014298,0.059806,0.012363,-0.083956,0.021716,0.040748,-0.127630,-0.071678,-0.060782,0.017534,0.060463,-0.033000,0.022738,0.006087,0.172959,-0.063400,0.088033,-0.027017,-0.064699,0.087032,0.011672,0.013263,-0.004350,-0.051120,-0.135739,-0.212382,0.142050,0.112085,0.011663,-0.020384,-0.051704,0.027336,-0.094036,0.063743,0.041626,0.063770,-0.108024,-0.091747,-0.072372,0.075735,-0.035656,0.078794,0.033820,-0.130859,-0.069683,-0.056180,-0.000479,-0.082379,0.032922,0.096439,0.013314,0.022203,-0.131589,-0.011082,0.078929,-0.008024,0.068235,-0.016649,0.075113,0.111557,0.013350,0.159005,-0.002594,0.062636,-0.047348,-0.117327,0.008894,-0.069300,0.025909,0.071689,0.000415,-0.078180,0.012535,0.025404,-0.087750,0.050100,-0.018274,-0.073462,-0.025371,0.101677,-0.028545,0.043321,0.165474,0.033803,-0.081133,0.097541,-0.094200,-0.027154,-0.051375,0.110033,-0.058673,-0.003169,-0.019426,0.048862,0.019628,0.019996,-0.117229,0.014491,0.093299,-0.021344,-0.072605,0.122647,0.022426,0.102304,-0.154727,-0.020293,0.011632,-0.063642,-0.040363,0.015211,0.021858,-0.070018,-0.027868,-0.032619,-0.031496,0.040692,-0.055193,-0.003910,0.067291,-0.061441,0.094821,0.049720,-0.006645,-0.112076,-0.028876,0.098566,0.046911,-0.112667,0.029302
マレー・インドネシア語インテンシブ１MA【１４】,-0.002975,-0.048213,0.021669,-0.068018,-0.016334,0.007634,-0.033465,0.041954,0.046654,0.047051,-0.124615,-0.074383,0.036626,-0.114762,-0.016396,-0.097141,-0.000592,-0.040747,-0.004962,-0.015744,-0.024581,0.099846,-0.024518,0.042378,0.021901,-0.023399,-0.015949,0.090768,-0.001273,-0.056384,-0.052132,0.038222,-0.071261,0.024646,-0.029232,-0.062186,-0.063116,-0.039848,0.082761,-0.034346,0.004332,-0.033779,0.121773,0.051297,-0.038367,-0.021156,0.004164,-0.091397,0.078876,0.030259,-0.018099,0.107688,-0.016942,0.073307,-0.160489,0.024021,-0.006885,0.143357,-0.150493,0.100853,-0.017238,-0.018946,0.033853,0.049632,-0.113128,0.086717,0.111887,0.071184,-0.086718,-0.144838,0.039371,0.013628,0.038481,0.015172,-0.075848,-0.021690,0.031284,-0.087801,0.063107,0.014393,-0.033563,0.051265,-0.039299,-0.001694,-0.081783,0.082293,0.029342,0.025351,-0.004642,-0.080807,0.019642,0.045040,0.079775,-0.051776,-0.038195,0.059358,-0.040049,0.011889,0.069913,0.023604,-0.091346,0.057483,0.042516,-0.029416,-0.018948,0.067972,0.060986,0.053963,-0.101952,-0.010468,-0.033953,-0.004720,0.120152,0.066454,-0.068514,0.017703,0.046528,0.060597,-0.054010,-0.077682,0.008021,-0.013387,0.013467,-0.083250,-0.059434,-0.064611,0.017976,-0.036938,0.090868,0.041608,0.059763,-0.014114,-0.027938,-0.044043,-0.035465,0.007195,-0.080614,-0.064661,-0.014271,0.029334,-0.016073,-0.005794,0.094967,0.028300,-0.035796,-0.021543,-0.048244,0.041088,0.076037,0.027588,0.089645,-0.002008,0.035386,0.137534,-0.072205,-0.034427,0.028759,-0.024219,-0.062765,-0.124873,0.013504,-0.001995,-0.094709,-0.020130,-0.025793,0.006253,-0.088435,-0.099605,0.107101,-0.003286,0.022909,-0.004448,0.000283,0.064661,-0.058663,0.036277,-0.056566,0.013748,0.068528,0.039323,0.041496,0.031345,0.004397,-0.099176,0.054210,-0.099361,-0.015729,-0.088864,-0.053137,-0.054885,0.048304,0.024461,0.044663,0.012717,-0.072767,0.055210,0.099260,0.026864,-0.152675,-0.054861
マレー・インドネシア語インテンシブ２MＡ【１４】,0.000547,-0.036218,0.006700,-0.054558,-0.002986,0.004490,-0.026714,0.031579,0.035042,0.039928,-0.092596,-0.062051,0.024851,-0.082345,-0.011226,-0.075562,0.002854,-0.028685,-0.002659,-0.016571,-0.033517,0.071151,-0.022071,0.029336,0.011840,-0.021154,-0.007669,0.061099,-0.005967,-0.040318,-0.035289,0.032268,-0.054046,0.025965,-0.018347,-0.045034,-0.038655,-0.034049,0.065940,-0.031443,0.003934,-0.033678,0.088108,0.030276,-0.041218,-0.023676,0.001560,-0.072426,0.066090,0.026399,-0.005217,0.077167,-0.017779,0.058001,-0.120088,0.013676,-0.008672,0.116631,-0.110814,0.073347,-0.016324,-0.015571,0.020978,0.031831,-0.081385,0.055353,0.071163,0.053260,-0.070598,-0.103492,0.024837,0.018478,0.024056,0.008191,-0.053333,-0.015287,0.025660,-0.058093,0.057769,0.003530,-0.019930,0.040951,-0.037297,-0.009347,-0.064552,0.055818,0.019436,0.015476,-0.009477,-0.058995,0.014855,0.034286,0.049856,-0.042163,-0.030168,0.045297,-0.030547,0.008620,0.050876,0.014103,-0.064807,0.053893,0.026544,-0.025233,-0.018830,0.042831,0.036328,0.039143,-0.084837,0.006516,-0.036378,-0.009195,0.092793,0.057845,-0.045112,0.004920,0.033950,0.051987,-0.046183,-0.074663,0.011250,-0.011845,0.011956,-0.067323,-0.049177,-0.052551,0.012479,-0.025892,0.072773,0.033690,0.038950,-0.000432,-0.015112,-0.026938,-0.029033,0.000542,-0.064715,-0.048037,-0.007739,0.019273,-0.009131,-0.007422,0.076719,0.027901,-0.031765,-0.013661,-0.033630,0.042945,0.052168,0.024080,0.067125,0.001477,0.020807,0.108512,-0.054343,-0.025100,0.023604,-0.020038,-0.048227,-0.102006,0.003820,0.005623,-0.074484,-0.013877,-0.021555,0.003360,-0.076066,-0.075285,0.070362,-0.000338,0.014375,-0.008976,-0.000154,0.054399,-0.043355,0.024848,-0.052928,0.014291,0.050164,0.029625,0.038836,0.027387,-0.006178,-0.083396,0.042684,-0.084617,-0.020264,-0.065387,-0.033820,-0.036120,0.042283,0.018533,0.030782,0.017475,-0.050873,0.042876,0.075751,0.014182,-0.110582,-0.038761
マレー・インドネシア語インテンシブ３インドネシア研修【１４】,-0.001310,-0.003324,0.027785,-0.045988,-0.038520,-0.001381,0.015570,0.042550,0.037392,0.084573,-0.121633,-0.062697,0.075967,-0.065046,-0.025099,-0.045351,0.021665,-0.061818,0.002973,0.013272,-0.049950,0.095082,-0.001477,0.014132,-0.013321,-0.033623,0.038250,0.079990,0.019784,-0.060665,0.003493,0.020259,-0.030376,0.011211,-0.010884,-0.014760,-0.057870,-0.018139,0.081020,-0.009114,0.055764,-0.077293,0.094547,-0.011045,-0.016966,-0.048124,0.005767,-0.047015,0.036577,0.046781,0.015512,0.136687,-0.035289,0.084527,-0.102675,0.032170,-0.017808,0.157755,-0.106609,0.069828,0.010351,-0.028193,0.036206,0.015990,-0.083805,0.069702,0.084690,0.010710,-0.120259,-0.093223,-0.018898,-0.002434,0.036890,0.013086,-0.075005,-0.023496,0.046777,-0.087312,0.026390,-0.027359,-0.028712,0.017608,-0.049792,0.026247,-0.036832,0.117172,-0.001732,0.029537,0.024942,-0.064344,0.011947,0.060377,0.057670,-0.024754,-0.031962,-0.003668,-0.119133,0.057298,0.073791,0.010203,-0.042487,0.029723,0.011715,-0.050431,0.010230,0.083562,0.025798,0.005269,-0.088058,-0.015589,-0.007150,-0.031603,0.082164,0.063744,-0.069445,-0.028365,-0.002659,0.033365,-0.081331,-0.063002,0.030765,0.005198,0.044210,-0.093528,-0.051875,-0.057181,0.025569,-0.016639,0.056634,0.068664,0.066619,-0.002289,0.021321,-0.039333,-0.009280,-0.037022,-0.077199,-0.039855,-0.014862,0.019259,-0.017066,-0.005388,0.081790,0.019825,-0.037840,-0.036238,0.002753,0.025633,0.046147,0.011776,0.089271,-0.037476,0.031892,0.113935,-0.035837,-0.028872,0.051160,-0.025995,-0.041645,-0.125751,0.018678,0.010894,-0.041297,-0.004267,-0.034745,0.022557,-0.049000,-0.084335,0.043738,0.030956,0.027682,-0.023400,0.020727,0.039928,-0.020817,-0.026206,-0.044573,0.041337,0.061515,0.008567,0.031324,0.021575,-0.011172,-0.075516,0.015917,-0.052713,0.017673,-0.044589,-0.026952,0.002826,0.042319,0.017483,0.039055,-0.006874,-0.086240,0.017894,0.086920,0.014000,-0.122612,-0.047181
スペイン語インテンシブ１SA【１４】,-0.054311,-0.114065,0.105708,0.008658,0.009660,0.029349,-0.065560,0.037297,0.097265,-0.006679,-0.236344,-0.136304,0.105289,-0.190751,-0.037008,-0.104642,-0.042007,0.007718,-0.053244,-0.042798,-0.000190,0.140350,-0.069237,0.101389,0.091271,0.003868,-0.027325,0.026970,0.158868,-0.221793,-0.038841,-0.021814,-0.071453,0.118775,-0.093566,-0.187166,-0.121244,-0.051516,0.266636,-0.039170,-0.060001,-0.139576,0.205213,0.161217,0.080699,0.076900,-0.050379,-0.218670,0.110339,0.084386,0.077954,0.229328,-0.122541,-0.007302,-0.286373,0.021325,-0.033435,0.224864,-0.284185,0.202455,-0.014613,0.033750,0.155713,0.043692,-0.234189,0.234978,0.219433,0.197695,-0.127552,-0.277946,0.183191,-0.034552,0.085730,-0.050324,-0.084918,0.023498,0.059140,-0.192336,0.091291,-0.039062,-0.021617,0.213907,-0.035011,-0.039021,-0.215537,0.240503,0.068156,0.178589,-0.113561,-0.097084,0.165799,0.017994,0.143610,-0.072813,-0.071392,-0.101435,-0.120281,0.140025,0.270360,0.071566,-0.106298,0.007667,0.115650,-0.004202,-0.139048,0.120786,0.015880,-0.003990,-0.193535,0.078976,-0.010273,-0.023326,0.257064,0.106891,-0.176393,0.034531,0.159486,0.084316,-0.031848,-0.076050,0.092198,-0.114081,0.022282,-0.226064,0.024876,-0.029633,-0.042291,0.051643,0.131224,0.056401,0.199039,-0.083245,0.025142,0.015260,-0.067301,0.036268,-0.159576,-0.101355,-0.041658,0.012732,0.097224,0.027193,-0.026565,0.005783,0.014042,-0.172717,-0.084061,0.000669,0.073759,0.042687,0.132045,-0.084580,0.090354,0.376858,-0.026382,-0.063946,0.101789,-0.048780,-0.143775,-0.067350,0.218358,0.011888,-0.141603,-0.065829,0.032351,-0.055413,-0.107777,-0.240142,0.080223,0.018711,-0.004832,0.086105,-0.038782,0.223765,-0.025393,0.104329,-0.084025,-0.032466,-0.025674,0.036869,0.012250,0.026539,-0.069486,-0.074630,0.095958,-0.142716,0.013309,-0.272656,-0.055185,-0.063825,0.022475,0.248298,0.216494,0.017499,-0.149090,0.020709,0.071853,0.073150,-0.210983,-0.067266
スペイン語インテンシブ２SA【１４】,-0.039070,-0.131369,0.162793,0.039271,-0.000828,0.030184,-0.051093,0.051587,0.109029,0.015254,-0.248601,-0.109761,0.148299,-0.189735,-0.066694,-0.135218,-0.046381,-0.034704,-0.045877,-0.028479,0.038775,0.153419,-0.010014,0.118895,0.101605,0.005697,-0.060990,0.039068,0.198519,-0.254743,0.018191,-0.020079,-0.069691,0.111690,-0.088676,-0.178739,-0.140511,-0.015029,0.308266,-0.050121,-0.078251,-0.172125,0.208451,0.170155,0.126146,0.081668,-0.053784,-0.246609,0.108429,0.079887,0.085944,0.280960,-0.169439,-0.001463,-0.303195,0.011660,-0.012997,0.213448,-0.314733,0.213105,-0.029386,0.023392,0.184570,0.068865,-0.243617,0.239592,0.220306,0.210976,-0.125107,-0.327478,0.204346,-0.022540,0.116278,-0.062363,-0.110003,-0.005034,0.061357,-0.241505,0.065625,-0.049929,-0.026361,0.227761,-0.033184,-0.042108,-0.225076,0.286159,0.046343,0.200349,-0.124193,-0.100413,0.220783,0.001451,0.124102,-0.096805,-0.135965,-0.102522,-0.184476,0.176078,0.300342,0.084661,-0.126562,-0.007429,0.123276,-0.043188,-0.128083,0.112388,0.052811,-0.037948,-0.240271,0.035658,0.024568,0.009568,0.324046,0.122247,-0.237558,0.015205,0.155521,0.109085,-0.068936,-0.061847,0.127067,-0.098993,0.013100,-0.278576,0.019192,0.021539,-0.059028,0.088361,0.130956,0.072534,0.233047,-0.080488,0.070423,0.014484,-0.052316,0.054258,-0.191211,-0.119820,-0.076532,0.034576,0.153318,0.020277,-0.039666,0.014448,0.006685,-0.169076,-0.092284,0.025504,0.070681,0.054393,0.189275,-0.067292,0.117616,0.421869,-0.030345,-0.104331,0.140271,-0.088376,-0.133370,-0.077683,0.245626,-0.026605,-0.169661,-0.106043,0.066363,-0.066652,-0.084821,-0.290223,0.095710,0.052192,-0.030595,0.040520,-0.005748,0.239723,0.014688,0.078498,-0.074663,-0.045602,-0.046102,0.063740,0.014128,0.022468,-0.103433,-0.082870,0.089569,-0.170161,0.006281,-0.295028,-0.063245,-0.068469,-0.039067,0.280190,0.218025,0.034559,-0.150491,-0.002230,0.066840,0.111405,-0.167643,-0.031421
スペイン語インテンシブ３スペイン研修【１４】,0.241793,-0.196273,0.251709,0.192795,-0.333163,-0.042484,0.197264,0.249638,0.116393,0.331550,-0.440447,-0.143318,0.454583,-0.264391,-0.207388,-0.041540,0.132265,-0.236770,-0.080034,-0.028639,-0.022368,0.345696,0.222280,0.013038,-0.053813,-0.258341,0.157974,0.071407,0.337504,-0.527877,0.323389,0.345748,0.065813,-0.072199,0.086550,-0.077035,-0.373539,0.162533,0.325109,-0.063709,0.218660,-0.370651,0.541755,-0.073316,0.214256,-0.079420,0.106338,-0.086669,0.006750,0.292518,0.371488,0.811496,-0.554998,0.167716,-0.295606,0.108454,-0.070906,0.604418,-0.333490,0.342122,0.038495,-0.053669,0.246724,-0.149244,-0.200509,0.328189,0.273899,0.007566,-0.486722,-0.355908,-0.027404,-0.133667,0.169785,-0.057713,-0.177073,0.032708,0.406161,-0.607765,-0.120875,-0.321453,-0.063813,0.161274,-0.183360,-0.065909,-0.247052,0.815437,0.063682,0.431501,-0.165348,-0.013372,0.674907,0.102993,0.151715,0.132833,-0.247989,-0.398490,-0.794467,0.720556,0.333971,0.253090,-0.038549,0.141304,0.115279,-0.573585,-0.000478,0.205900,0.006806,-0.441681,-0.277451,0.024666,-0.026039,-0.324037,0.298881,-0.076747,-0.400844,-0.332631,-0.173706,-0.055821,-0.329476,-0.351718,0.284285,0.020609,0.096027,-0.489519,-0.027407,0.128061,-0.124082,0.114067,0.101190,0.189538,0.457544,0.163018,0.539749,0.026814,-0.038023,-0.220063,-0.342598,0.202509,-0.414765,0.057557,0.192729,0.183685,-0.196756,-0.009334,-0.057586,-0.458047,0.396262,-0.074781,-0.014707,-0.137366,0.334724,-0.356731,0.019717,0.569622,-0.068375,-0.204914,0.296722,-0.163008,-0.361087,-0.211905,0.520515,-0.136833,-0.240890,-0.277844,-0.040725,-0.012633,0.067019,-0.406228,-0.124538,0.222284,0.097113,-0.290491,0.441512,0.314481,0.483651,-0.544085,-0.216737,0.010178,-0.022981,-0.179761,-0.013887,0.042361,-0.281565,-0.111149,-0.055923,-0.116977,0.102319,-0.209811,-0.083964,0.375350,-0.074145,0.219154,0.407952,-0.026529,-0.231239,-0.064538,-0.052595,-0.129764,-0.284715,-0.097459
スペイン語インテンシブ４SA【１４】,0.014804,-0.084283,0.113725,-0.018038,-0.024361,0.016177,-0.017570,-0.007349,0.079189,0.009493,-0.215034,-0.038659,0.030818,-0.137917,0.000121,-0.046269,-0.009398,-0.016787,-0.057273,0.037815,-0.065411,0.136042,-0.043499,0.046425,0.033287,-0.012773,-0.009959,0.032456,0.056862,-0.078515,-0.031724,0.064180,-0.062754,0.050160,-0.068445,-0.148008,-0.069845,-0.001458,0.092260,-0.027645,-0.037516,-0.062581,0.117101,0.056912,0.024991,0.005566,-0.032687,-0.105038,0.059777,0.003863,0.038801,0.172124,-0.029503,0.083666,-0.206210,0.010801,-0.036744,0.260111,-0.197020,0.118427,0.043422,0.062317,0.047739,0.027601,-0.189840,0.211476,0.123281,0.078094,-0.050838,-0.194856,0.079777,-0.062863,-0.035994,-0.047062,-0.081727,-0.003483,0.059689,-0.077501,0.077468,0.020142,-0.032351,0.147316,-0.057552,-0.060961,-0.164462,0.071642,0.003204,0.060940,-0.031720,-0.113278,0.057047,0.037277,0.130565,-0.093349,-0.003802,-0.041852,-0.065650,0.023015,0.146040,0.059950,-0.079496,0.036501,0.088924,-0.062750,-0.079485,0.054083,0.037477,0.036518,-0.098840,0.015989,-0.092564,-0.010529,0.110761,-0.015289,-0.080722,0.044926,0.102457,0.044213,-0.047831,-0.108416,0.035737,-0.067340,0.011495,-0.139761,-0.065933,-0.036594,0.045587,-0.014508,0.093500,0.016532,0.078073,0.005260,-0.055256,-0.036273,-0.068327,0.016325,-0.134195,-0.039244,-0.030862,0.073646,0.001000,0.021006,0.062828,-0.031625,0.026302,-0.043451,-0.069559,0.004551,0.031792,0.040804,0.070366,-0.015942,0.031622,0.181440,-0.064659,-0.026595,0.076668,-0.011130,-0.107706,-0.104079,0.054787,-0.024982,-0.069781,-0.050352,-0.035218,-0.073848,-0.073913,-0.097049,0.112279,-0.019812,0.016900,0.020070,0.007236,0.124923,-0.018836,0.051277,-0.107412,0.014886,0.032499,0.024635,0.034923,0.076951,-0.000492,-0.079708,0.055137,-0.104877,-0.010217,-0.106111,-0.021195,-0.080164,0.001168,0.078937,0.122427,0.021746,-0.025573,-0.033527,-0.006641,-0.061227,-0.120215,-0.043252
アラビア語インテンシブ１AA【１４】,0.022264,-0.026046,0.154369,0.015653,-0.054944,0.037819,0.031860,0.065166,0.070967,0.069599,-0.170226,-0.031223,0.135488,-0.119301,-0.095964,-0.100566,-0.004435,-0.102586,-0.003041,0.020740,0.056271,0.128526,0.072983,0.066064,0.042117,-0.030273,-0.024933,0.089885,0.126412,-0.167564,0.096722,0.018926,-0.021957,-0.004301,-0.032270,-0.017364,-0.124166,0.036444,0.186976,-0.009415,0.030715,-0.149045,0.124735,0.068985,0.093923,0.005938,-0.022135,-0.119417,0.023526,0.045403,0.044908,0.243100,-0.128613,0.064886,-0.148690,0.012504,0.019302,0.159611,-0.191421,0.105779,-0.016653,-0.019299,0.118829,0.081944,-0.142444,0.139768,0.140663,0.070129,-0.130058,-0.214959,0.065630,-0.003167,0.097534,-0.006119,-0.122538,-0.034473,0.063698,-0.198825,-0.023534,-0.069958,-0.018763,0.100332,-0.041668,0.005944,-0.067621,0.254562,-0.015627,0.115977,-0.021509,-0.068165,0.118981,0.026655,0.055025,-0.041942,-0.153166,-0.081174,-0.249640,0.144708,0.186926,0.036911,-0.080369,-0.027507,0.041565,-0.101783,-0.006178,0.085754,0.093385,-0.066908,-0.160486,-0.088139,0.080376,0.013567,0.208202,0.087818,-0.209645,-0.043529,-0.005498,0.078323,-0.115760,-0.004556,0.098917,-0.003485,0.026114,-0.222313,-0.025993,0.063707,-0.010855,0.056824,0.048175,0.077476,0.169859,-0.014238,0.117842,-0.028740,0.024828,-0.018446,-0.166425,-0.056071,-0.088920,0.046607,0.086213,0.015576,-0.005522,0.035699,-0.027377,-0.099523,-0.022109,0.025479,0.020272,0.027979,0.182592,-0.028592,0.081006,0.285979,-0.018136,-0.116676,0.122943,-0.105126,-0.041209,-0.115795,0.132297,-0.058133,-0.088895,-0.052997,0.058128,-0.023502,-0.030689,-0.216846,0.089290,0.118119,-0.026552,-0.056538,0.097569,0.074501,0.067291,-0.098252,-0.045725,-0.009023,-0.005348,0.018163,0.014855,0.026343,-0.072554,-0.084794,0.026092,-0.101828,0.035111,-0.148412,-0.059229,0.006450,-0.070960,0.137631,0.081269,-0.003006,-0.127429,-0.020199,0.080485,0.091741,-0.093245,-0.014552
アラビア語インテンシブ３AA【１４】,0.049709,0.023774,0.156795,0.065940,-0.055789,0.030245,0.030799,0.042864,0.081373,0.046223,-0.132684,0.036430,0.109032,-0.061119,-0.107012,-0.037398,-0.006728,-0.086882,-0.004729,0.064203,0.050413,0.122428,0.086621,0.025157,0.039158,-0.022116,-0.015972,0.039961,0.104324,-0.180953,0.176588,0.010374,0.017781,-0.053371,0.011695,0.025647,-0.104393,0.046098,0.171979,0.007101,0.042655,-0.166968,0.065086,0.011085,0.138533,0.008457,-0.040248,-0.073741,-0.004392,0.050348,0.094673,0.208148,-0.128507,0.053559,-0.085742,0.011685,-0.002407,0.136730,-0.128396,0.040784,-0.022351,0.006949,0.117955,0.055805,-0.102132,0.134171,0.095439,0.017748,-0.093510,-0.160350,0.038450,-0.006968,0.052385,0.002923,-0.135373,0.006159,0.039199,-0.155509,-0.067462,-0.071506,0.004295,0.101294,-0.029201,-0.012221,-0.047931,0.229915,-0.064875,0.113674,-0.031270,-0.086122,0.105561,0.019499,0.012534,-0.049005,-0.109569,-0.143707,-0.239894,0.186020,0.162307,0.014146,-0.055962,-0.044637,0.039176,-0.115712,0.049502,0.052105,0.061186,-0.124021,-0.126754,-0.068332,0.089275,0.004167,0.181665,0.058714,-0.211474,-0.080327,-0.041518,0.022421,-0.118178,0.025267,0.130695,0.000553,0.014675,-0.178169,-0.000332,0.084912,-0.020672,0.065416,-0.003451,0.087256,0.152601,0.008406,0.160903,0.009437,0.037703,-0.054161,-0.172157,-0.017344,-0.088704,0.048367,0.118801,0.015420,-0.065856,0.046093,-0.006391,-0.099562,0.011681,-0.005596,-0.054536,0.007273,0.141321,0.004568,0.096779,0.270363,0.015263,-0.107188,0.130879,-0.099776,-0.046086,-0.059935,0.114084,-0.067242,-0.035457,-0.051278,0.064606,-0.002112,-0.015968,-0.186960,0.062499,0.136679,-0.043347,-0.093320,0.108322,0.035355,0.132629,-0.155933,-0.049726,0.002952,-0.053756,-0.000413,0.025591,0.035137,-0.081125,-0.043182,0.007240,-0.068703,0.022897,-0.116668,-0.031292,0.041488,-0.085691,0.130629,0.092007,0.005943,-0.077253,-0.057587,0.033969,0.057917,-0.003011,-0.005670
